digraph Tree {
node [shape=box, style="filled, rounded", color="black", fontname=helvetica] ;
edge [fontname=helvetica] ;
0 [label="Term_Long Term <= 0.5\nfriedman_mse = 207.444\nsamples = 40000\nvalue = 1.476", fillcolor="#ea985e"] ;
1 [label="log_Maximum Open Credit <= 13.018\nfriedman_mse = 179.374\nsamples = 28894\nvalue = 4.348", fillcolor="#e9965a"] ;
0 -> 1 [labeldistance=2.5, labelangle=45, headlabel="True"] ;
2 [label="Years of Credit History <= 9.25\nfriedman_mse = 189.982\nsamples = 15025\nvalue = 2.519", fillcolor="#ea975c"] ;
1 -> 2 ;
3 [label="Maximum Open Credit <= 242704.0\nfriedman_mse = 174.116\nsamples = 1430\nvalue = -0.782", fillcolor="#ea9a61"] ;
2 -> 3 ;
4 [label="(...)", fillcolor="#C0C0C0"] ;
3 -> 4 ;
167 [label="(...)", fillcolor="#C0C0C0"] ;
3 -> 167 ;
398 [label="Maximum Open Credit <= 205898.0\nfriedman_mse = 190.384\nsamples = 13595\nvalue = 2.866", fillcolor="#ea975c"] ;
2 -> 398 ;
399 [label="(...)", fillcolor="#C0C0C0"] ;
398 -> 399 ;
754 [label="(...)", fillcolor="#C0C0C0"] ;
398 -> 754 ;
1819 [label="Annual Income <= 1378288.5\nfriedman_mse = 160.33\nsamples = 13869\nvalue = 6.33", fillcolor="#e99457"] ;
1 -> 1819 ;
1820 [label="Annual Income <= 1378110.312\nfriedman_mse = 142.636\nsamples = 8529\nvalue = 4.997", fillcolor="#e99559"] ;
1819 -> 1820 ;
1821 [label="(...)", fillcolor="#C0C0C0"] ;
1820 -> 1821 ;
2862 [label="(...)", fillcolor="#C0C0C0"] ;
1820 -> 2862 ;
2975 [label="log_Current Credit Balance <= 12.58\nfriedman_mse = 181.213\nsamples = 5340\nvalue = 8.46", fillcolor="#e99254"] ;
1819 -> 2975 ;
2976 [label="(...)", fillcolor="#C0C0C0"] ;
2975 -> 2976 ;
3303 [label="(...)", fillcolor="#C0C0C0"] ;
2975 -> 3303 ;
4010 [label="Maximum Open Credit <= 785609.0\nfriedman_mse = 203.151\nsamples = 11106\nvalue = -5.998", fillcolor="#eb9f68"] ;
0 -> 4010 [labeldistance=2.5, labelangle=-45, headlabel="False"] ;
4011 [label="Annual Income <= 1377927.5\nfriedman_mse = 203.355\nsamples = 7605\nvalue = -7.002", fillcolor="#eba06a"] ;
4010 -> 4011 ;
4012 [label="Monthly Debt <= 15185.75\nfriedman_mse = 225.231\nsamples = 3882\nvalue = -8.398", fillcolor="#eca16c"] ;
4011 -> 4012 ;
4013 [label="(...)", fillcolor="#C0C0C0"] ;
4012 -> 4013 ;
4412 [label="(...)", fillcolor="#C0C0C0"] ;
4012 -> 4412 ;
4911 [label="Annual Income <= 1380312.0\nfriedman_mse = 176.393\nsamples = 3723\nvalue = -5.546", fillcolor="#eb9f68"] ;
4011 -> 4911 ;
4912 [label="(...)", fillcolor="#C0C0C0"] ;
4911 -> 4912 ;
4929 [label="(...)", fillcolor="#C0C0C0"] ;
4911 -> 4929 ;
5432 [label="log_Current Credit Balance <= 12.944\nfriedman_mse = 195.76\nsamples = 3501\nvalue = -3.816", fillcolor="#eb9d65"] ;
4010 -> 5432 ;
5433 [label="log_Maximum Open Credit <= 13.911\nfriedman_mse = 190.93\nsamples = 1063\nvalue = -0.393", fillcolor="#ea9a60"] ;
5432 -> 5433 ;
5434 [label="(...)", fillcolor="#C0C0C0"] ;
5433 -> 5434 ;
5679 [label="(...)", fillcolor="#C0C0C0"] ;
5433 -> 5679 ;
5844 [label="Maximum Open Credit <= 1298055.0\nfriedman_mse = 190.529\nsamples = 2438\nvalue = -5.309", fillcolor="#eb9f67"] ;
5432 -> 5844 ;
5845 [label="(...)", fillcolor="#C0C0C0"] ;
5844 -> 5845 ;
6312 [label="(...)", fillcolor="#C0C0C0"] ;
5844 -> 6312 ;
}