digraph Tree {
node [shape=box, style="filled, rounded", color="black", fontname=helvetica] ;
edge [fontname=helvetica] ;
0 [label="Term_Short Term <= 0.5\nmse = 643.07\nsamples = 25295\nvalue = 716.36", fillcolor="#e58139ca"] ;
1 [label="Maximum Open Credit <= 810502.0\nmse = 950.94\nsamples = 6957\nvalue = 698.92", fillcolor="#e58139af"] ;
0 -> 1 [labeldistance=2.5, labelangle=45, headlabel="True"] ;
2 [label="CurrentLoanAmount <= 540397.0\nmse = 983.74\nsamples = 4877\nvalue = 696.1", fillcolor="#e58139ab"] ;
1 -> 2 ;
3 [label="Annual Income <= 1377806.25\nmse = 897.39\nsamples = 3627\nvalue = 698.32", fillcolor="#e58139ae"] ;
2 -> 3 ;
4 [label="Years of Credit History <= 9.85\nmse = 1009.59\nsamples = 2031\nvalue = 693.28", fillcolor="#e58139a6"] ;
3 -> 4 ;
5 [label="Purpose_Debt Consolidation <= 0.5\nmse = 1285.78\nsamples = 200\nvalue = 681.46", fillcolor="#e5813994"] ;
4 -> 5 ;
6 [label="Years in current job_4 years <= 0.5\nmse = 1655.21\nsamples = 46\nvalue = 665.03", fillcolor="#e581397b"] ;
5 -> 6 ;
7 [label="Current Credit Balance <= 44374.5\nmse = 1453.25\nsamples = 38\nvalue = 657.29", fillcolor="#e581396f"] ;
6 -> 7 ;
8 [label="Number of Open Accounts <= 14.5\nmse = 967.79\nsamples = 11\nvalue = 686.61", fillcolor="#e581399c"] ;
7 -> 8 ;
9 [label="Annual Income <= 815527.5\nmse = 519.75\nsamples = 10\nvalue = 694.56", fillcolor="#e58139a8"] ;
8 -> 9 ;
10 [label="mse = 343.06\nsamples = 7\nvalue = 708.22", fillcolor="#e58139bd"] ;
9 -> 10 ;
11 [label="mse = 198.57\nsamples = 3\nvalue = 677.0", fillcolor="#e581398d"] ;
9 -> 11 ;
12 [label="mse = 0.0\nsamples = 1\nvalue = 623.0", fillcolor="#e581393a"] ;
8 -> 12 ;
13 [label="Monthly Debt <= 20272.71\nmse = 1165.85\nsamples = 27\nvalue = 645.56", fillcolor="#e581395d"] ;
7 -> 13 ;
14 [label="Monthly Debt <= 4548.12\nmse = 631.88\nsamples = 22\nvalue = 633.62", fillcolor="#e581394b"] ;
13 -> 14 ;
15 [label="mse = 246.0\nsamples = 3\nvalue = 668.0", fillcolor="#e5813980"] ;
14 -> 15 ;
16 [label="CurrentLoanAmount <= 81983.0\nmse = 504.7\nsamples = 19\nvalue = 629.03", fillcolor="#e5813944"] ;
14 -> 16 ;
17 [label="mse = 126.75\nsamples = 2\nvalue = 661.5", fillcolor="#e5813976"] ;
16 -> 17 ;
18 [label="Current Credit Balance <= 93024.0\nmse = 375.73\nsamples = 17\nvalue = 624.04", fillcolor="#e581393c"] ;
16 -> 18 ;
19 [label="mse = 407.34\nsamples = 8\nvalue = 636.45", fillcolor="#e581394f"] ;
18 -> 19 ;
20 [label="mse = 156.6\nsamples = 9\nvalue = 614.93", fillcolor="#e581392e"] ;
18 -> 20 ;
21 [label="mse = 1014.25\nsamples = 5\nvalue = 682.45", fillcolor="#e5813996"] ;
13 -> 21 ;
22 [label="mse = 936.4\nsamples = 8\nvalue = 702.54", fillcolor="#e58139b5"] ;
6 -> 22 ;
23 [label="Annual Income <= 637668.5\nmse = 1059.39\nsamples = 154\nvalue = 686.6", fillcolor="#e581399c"] ;
5 -> 23 ;
24 [label="Years of Credit History <= 6.95\nmse = 322.34\nsamples = 22\nvalue = 705.27", fillcolor="#e58139b9"] ;
23 -> 24 ;
25 [label="mse = 213.56\nsamples = 2\nvalue = 665.33", fillcolor="#e581397b"] ;
24 -> 25 ;
26 [label="Monthly Debt <= 6871.83\nmse = 195.09\nsamples = 20\nvalue = 708.42", fillcolor="#e58139be"] ;
24 -> 26 ;
27 [label="Years of Credit History <= 8.1\nmse = 131.99\nsamples = 11\nvalue = 704.08", fillcolor="#e58139b7"] ;
26 -> 27 ;
28 [label="mse = 23.47\nsamples = 2\nvalue = 720.17", fillcolor="#e58139d0"] ;
27 -> 28 ;
29 [label="mse = 53.2\nsamples = 9\nvalue = 698.72", fillcolor="#e58139af"] ;
27 -> 29 ;
30 [label="mse = 215.69\nsamples = 9\nvalue = 715.86", fillcolor="#e58139c9"] ;
26 -> 30 ;
31 [label="Maximum Open Credit <= 249766.0\nmse = 1123.87\nsamples = 132\nvalue = 682.81", fillcolor="#e5813996"] ;
23 -> 31 ;
32 [label="Monthly Debt <= 9056.45\nmse = 1197.48\nsamples = 34\nvalue = 665.38", fillcolor="#e581397b"] ;
31 -> 32 ;
33 [label="Years of Credit History <= 9.55\nmse = 1315.91\nsamples = 12\nvalue = 686.7", fillcolor="#e581399c"] ;
32 -> 33 ;
34 [label="mse = 1244.39\nsamples = 6\nvalue = 672.33", fillcolor="#e5813986"] ;
33 -> 34 ;
35 [label="mse = 649.19\nsamples = 6\nvalue = 708.25", fillcolor="#e58139bd"] ;
33 -> 35 ;
36 [label="Years in current job_< 1 year <= 0.5\nmse = 683.16\nsamples = 22\nvalue = 652.45", fillcolor="#e5813968"] ;
32 -> 36 ;
37 [label="Annual Income <= 1071638.0\nmse = 493.66\nsamples = 20\nvalue = 648.77", fillcolor="#e5813962"] ;
36 -> 37 ;
38 [label="Annual Income <= 967603.5\nmse = 265.99\nsamples = 10\nvalue = 638.11", fillcolor="#e5813952"] ;
37 -> 38 ;
39 [label="mse = 132.5\nsamples = 7\nvalue = 643.44", fillcolor="#e581395a"] ;
38 -> 39 ;
40 [label="mse = 17.56\nsamples = 3\nvalue = 609.67", fillcolor="#e5813926"] ;
38 -> 40 ;
41 [label="Maximum Open Credit <= 194854.0\nmse = 388.56\nsamples = 10\nvalue = 665.67", fillcolor="#e581397c"] ;
37 -> 41 ;
42 [label="mse = 482.75\nsamples = 4\nvalue = 682.5", fillcolor="#e5813996"] ;
41 -> 42 ;
43 [label="mse = 128.94\nsamples = 6\nvalue = 657.25", fillcolor="#e581396f"] ;
41 -> 43 ;
44 [label="mse = 156.25\nsamples = 2\nvalue = 709.5", fillcolor="#e58139bf"] ;
36 -> 44 ;
45 [label="Annual Income <= 767980.0\nmse = 951.19\nsamples = 98\nvalue = 689.01", fillcolor="#e58139a0"] ;
31 -> 45 ;
46 [label="Maximum Open Credit <= 326854.0\nmse = 853.66\nsamples = 19\nvalue = 664.97", fillcolor="#e581397b"] ;
45 -> 46 ;
47 [label="mse = 387.19\nsamples = 7\nvalue = 682.75", fillcolor="#e5813996"] ;
46 -> 47 ;
48 [label="Maximum Open Credit <= 551529.0\nmse = 830.01\nsamples = 12\nvalue = 654.3", fillcolor="#e581396a"] ;
46 -> 48 ;
49 [label="Annual Income <= 655528.5\nmse = 547.77\nsamples = 11\nvalue = 650.26", fillcolor="#e5813964"] ;
48 -> 49 ;
50 [label="mse = 0.0\nsamples = 1\nvalue = 720.0", fillcolor="#e58139cf"] ;
49 -> 50 ;
51 [label="Current Credit Balance <= 142262.5\nmse = 293.02\nsamples = 10\nvalue = 646.39", fillcolor="#e581395e"] ;
49 -> 51 ;
52 [label="mse = 126.75\nsamples = 3\nvalue = 628.5", fillcolor="#e5813943"] ;
51 -> 52 ;
53 [label="mse = 222.96\nsamples = 7\nvalue = 651.5", fillcolor="#e5813966"] ;
51 -> 53 ;
54 [label="mse = 0.0\nsamples = 1\nvalue = 731.0", fillcolor="#e58139e0"] ;
48 -> 54 ;
55 [label="LoanStatus_Fully Paid <= 0.5\nmse = 776.6\nsamples = 79\nvalue = 695.58", fillcolor="#e58139aa"] ;
45 -> 55 ;
56 [label="Years in current job_6 years <= 0.5\nmse = 726.24\nsamples = 24\nvalue = 680.76", fillcolor="#e5813993"] ;
55 -> 56 ;
57 [label="Monthly Debt <= 23806.71\nmse = 448.42\nsamples = 23\nvalue = 685.12", fillcolor="#e581399a"] ;
56 -> 57 ;
58 [label="Annual Income <= 832494.5\nmse = 373.08\nsamples = 21\nvalue = 688.48", fillcolor="#e581399f"] ;
57 -> 58 ;
59 [label="mse = 150.22\nsamples = 2\nvalue = 653.33", fillcolor="#e5813969"] ;
58 -> 59 ;
60 [label="Monthly Debt <= 21366.64\nmse = 239.79\nsamples = 19\nvalue = 692.54", fillcolor="#e58139a5"] ;
58 -> 60 ;
61 [label="Maximum Open Credit <= 664422.0\nmse = 217.67\nsamples = 17\nvalue = 696.43", fillcolor="#e58139ab"] ;
60 -> 61 ;
62 [label="mse = 128.17\nsamples = 15\nvalue = 700.22", fillcolor="#e58139b1"] ;
61 -> 62 ;
63 [label="mse = 150.22\nsamples = 2\nvalue = 673.67", fillcolor="#e5813988"] ;
61 -> 63 ;
64 [label="mse = 2.16\nsamples = 2\nvalue = 676.2", fillcolor="#e581398c"] ;
60 -> 64 ;
65 [label="mse = 14.22\nsamples = 2\nvalue = 652.67", fillcolor="#e5813968"] ;
57 -> 65 ;
66 [label="mse = 0.0\nsamples = 1\nvalue = 611.0", fillcolor="#e5813928"] ;
56 -> 66 ;
67 [label="Monthly Debt <= 24982.24\nmse = 670.47\nsamples = 55\nvalue = 701.65", fillcolor="#e58139b3"] ;
55 -> 67 ;
68 [label="Years in current job_9 years <= 0.5\nmse = 540.68\nsamples = 48\nvalue = 705.93", fillcolor="#e58139ba"] ;
67 -> 68 ;
69 [label="Current Credit Balance <= 455240.0\nmse = 460.88\nsamples = 47\nvalue = 707.56", fillcolor="#e58139bc"] ;
68 -> 69 ;
70 [label="Current Credit Balance <= 166212.0\nmse = 394.36\nsamples = 46\nvalue = 708.58", fillcolor="#e58139be"] ;
69 -> 70 ;
71 [label="Number of Credit Problems <= 0.5\nmse = 381.55\nsamples = 14\nvalue = 720.0", fillcolor="#e58139cf"] ;
70 -> 71 ;
72 [label="mse = 72.41\nsamples = 13\nvalue = 723.86", fillcolor="#e58139d5"] ;
71 -> 72 ;
73 [label="mse = 0.0\nsamples = 1\nvalue = 639.0", fillcolor="#e5813953"] ;
71 -> 73 ;
74 [label="Current Credit Balance <= 166753.5\nmse = 310.73\nsamples = 32\nvalue = 703.23", fillcolor="#e58139b6"] ;
70 -> 74 ;
75 [label="mse = 0.0\nsamples = 1\nvalue = 650.0", fillcolor="#e5813964"] ;
74 -> 75 ;
76 [label="mse = 254.54\nsamples = 31\nvalue = 704.39", fillcolor="#e58139b7"] ;
74 -> 76 ;
77 [label="mse = 0.0\nsamples = 1\nvalue = 637.0", fillcolor="#e5813950"] ;
69 -> 77 ;
78 [label="mse = 0.0\nsamples = 1\nvalue = 649.0", fillcolor="#e5813962"] ;
68 -> 78 ;
79 [label="mse = 615.32\nsamples = 7\nvalue = 673.64", fillcolor="#e5813988"] ;
67 -> 79 ;
80 [label="Monthly Debt <= 11333.31\nmse = 962.21\nsamples = 1831\nvalue = 694.58", fillcolor="#e58139a8"] ;
4 -> 80 ;
81 [label="Years of Credit History <= 13.75\nmse = 871.91\nsamples = 543\nvalue = 700.49", fillcolor="#e58139b1"] ;
80 -> 81 ;
82 [label="Purpose_Other <= 0.5\nmse = 1157.45\nsamples = 151\nvalue = 693.02", fillcolor="#e58139a6"] ;
81 -> 82 ;
83 [label="Maximum Open Credit <= 105292.0\nmse = 1136.48\nsamples = 142\nvalue = 691.15", fillcolor="#e58139a3"] ;
82 -> 83 ;
84 [label="Maximum Open Credit <= 94622.0\nmse = 1925.33\nsamples = 17\nvalue = 673.27", fillcolor="#e5813988"] ;
83 -> 84 ;
85 [label="Years of Credit History <= 13.35\nmse = 1112.6\nsamples = 14\nvalue = 689.48", fillcolor="#e58139a0"] ;
84 -> 85 ;
86 [label="Current Credit Balance <= 5719.0\nmse = 389.85\nsamples = 12\nvalue = 697.95", fillcolor="#e58139ae"] ;
85 -> 86 ;
87 [label="mse = 8.22\nsamples = 3\nvalue = 731.67", fillcolor="#e58139e1"] ;
86 -> 87 ;
88 [label="mse = 232.44\nsamples = 9\nvalue = 692.33", fillcolor="#e58139a5"] ;
86 -> 88 ;
89 [label="mse = 30.25\nsamples = 2\nvalue = 600.5", fillcolor="#e5813918"] ;
85 -> 89 ;
90 [label="mse = 894.86\nsamples = 3\nvalue = 620.0", fillcolor="#e5813936"] ;
84 -> 90 ;
91 [label="Current Credit Balance <= 7552.5\nmse = 963.0\nsamples = 125\nvalue = 693.83", fillcolor="#e58139a7"] ;
83 -> 91 ;
92 [label="mse = 2448.24\nsamples = 3\nvalue = 636.6", fillcolor="#e581394f"] ;
91 -> 92 ;
93 [label="Monthly Debt <= 9851.97\nmse = 838.78\nsamples = 122\nvalue = 695.3", fillcolor="#e58139a9"] ;
91 -> 93 ;
94 [label="Purpose_small_business <= 0.5\nmse = 954.99\nsamples = 88\nvalue = 690.89", fillcolor="#e58139a3"] ;
93 -> 94 ;
95 [label="Years of Credit History <= 10.75\nmse = 918.41\nsamples = 86\nvalue = 689.79", fillcolor="#e58139a1"] ;
94 -> 95 ;
96 [label="Years in current job_2 years <= 0.5\nmse = 401.0\nsamples = 14\nvalue = 673.0", fillcolor="#e5813987"] ;
95 -> 96 ;
97 [label="Annual Income <= 644233.0\nmse = 283.6\nsamples = 13\nvalue = 670.37", fillcolor="#e5813983"] ;
96 -> 97 ;
98 [label="mse = 213.55\nsamples = 4\nvalue = 684.14", fillcolor="#e5813998"] ;
97 -> 98 ;
99 [label="mse = 149.22\nsamples = 9\nvalue = 662.33", fillcolor="#e5813977"] ;
97 -> 99 ;
100 [label="mse = 0.0\nsamples = 1\nvalue = 723.0", fillcolor="#e58139d4"] ;
96 -> 100 ;
101 [label="Monthly Debt <= 8224.34\nmse = 950.23\nsamples = 72\nvalue = 692.64", fillcolor="#e58139a5"] ;
95 -> 101 ;
102 [label="Years of Credit History <= 11.95\nmse = 808.33\nsamples = 47\nvalue = 699.48", fillcolor="#e58139b0"] ;
101 -> 102 ;
103 [label="mse = 293.68\nsamples = 13\nvalue = 716.52", fillcolor="#e58139ca"] ;
102 -> 103 ;
104 [label="mse = 851.55\nsamples = 34\nvalue = 693.09", fillcolor="#e58139a6"] ;
102 -> 104 ;
105 [label="CurrentLoanAmount <= 281941.0\nmse = 963.49\nsamples = 25\nvalue = 679.78", fillcolor="#e5813992"] ;
101 -> 105 ;
106 [label="mse = 896.53\nsamples = 9\nvalue = 701.08", fillcolor="#e58139b2"] ;
105 -> 106 ;
107 [label="mse = 686.24\nsamples = 16\nvalue = 669.89", fillcolor="#e5813982"] ;
105 -> 107 ;
108 [label="mse = 3.56\nsamples = 2\nvalue = 741.67", fillcolor="#e58139f1"] ;
94 -> 108 ;
109 [label="Current Credit Balance <= 69331.0\nmse = 352.5\nsamples = 34\nvalue = 706.8", fillcolor="#e58139bb"] ;
93 -> 109 ;
110 [label="mse = 180.33\nsamples = 7\nvalue = 725.0", fillcolor="#e58139d7"] ;
109 -> 110 ;
111 [label="Current Credit Balance <= 72694.0\nmse = 279.96\nsamples = 27\nvalue = 701.6", fillcolor="#e58139b3"] ;
109 -> 111 ;
112 [label="mse = 0.0\nsamples = 1\nvalue = 659.0", fillcolor="#e5813972"] ;
111 -> 112 ;
113 [label="Number of Open Accounts <= 4.5\nmse = 198.7\nsamples = 26\nvalue = 703.72", fillcolor="#e58139b6"] ;
111 -> 113 ;
114 [label="mse = 0.0\nsamples = 1\nvalue = 653.0", fillcolor="#e5813968"] ;
113 -> 114 ;
115 [label="Number of Open Accounts <= 15.0\nmse = 136.13\nsamples = 25\nvalue = 705.03", fillcolor="#e58139b8"] ;
113 -> 115 ;
116 [label="mse = 112.71\nsamples = 23\nvalue = 706.91", fillcolor="#e58139bb"] ;
115 -> 116 ;
117 [label="mse = 36.75\nsamples = 2\nvalue = 688.5", fillcolor="#e581399f"] ;
115 -> 117 ;
118 [label="mse = 810.88\nsamples = 9\nvalue = 716.89", fillcolor="#e58139cb"] ;
82 -> 118 ;
119 [label="Monthly Debt <= 5893.61\nmse = 730.03\nsamples = 392\nvalue = 703.41", fillcolor="#e58139b6"] ;
81 -> 119 ;
120 [label="CurrentLoanAmount <= 108042.0\nmse = 505.4\nsamples = 100\nvalue = 710.44", fillcolor="#e58139c1"] ;
119 -> 120 ;
121 [label="Years of Credit History <= 16.2\nmse = 555.49\nsamples = 12\nvalue = 727.75", fillcolor="#e58139db"] ;
120 -> 121 ;
122 [label="mse = 117.56\nsamples = 3\nvalue = 674.33", fillcolor="#e5813989"] ;
121 -> 122 ;
123 [label="mse = 40.38\nsamples = 9\nvalue = 737.18", fillcolor="#e58139ea"] ;
121 -> 123 ;
124 [label="CurrentLoanAmount <= 149721.0\nmse = 454.56\nsamples = 88\nvalue = 708.18", fillcolor="#e58139bd"] ;
120 -> 124 ;
125 [label="mse = 256.8\nsamples = 9\nvalue = 688.79", fillcolor="#e581399f"] ;
124 -> 125 ;
126 [label="Annual Income <= 558657.0\nmse = 421.76\nsamples = 79\nvalue = 710.93", fillcolor="#e58139c1"] ;
124 -> 126 ;
127 [label="mse = 109.17\nsamples = 7\nvalue = 735.54", fillcolor="#e58139e7"] ;
126 -> 127 ;
128 [label="Maximum Open Credit <= 328416.0\nmse = 383.26\nsamples = 72\nvalue = 708.28", fillcolor="#e58139bd"] ;
126 -> 128 ;
129 [label="CurrentLoanAmount <= 491315.0\nmse = 343.5\nsamples = 41\nvalue = 702.12", fillcolor="#e58139b4"] ;
128 -> 129 ;
130 [label="Monthly Debt <= 2366.45\nmse = 288.5\nsamples = 40\nvalue = 703.08", fillcolor="#e58139b5"] ;
129 -> 130 ;
131 [label="Years of Credit History <= 15.4\nmse = 254.4\nsamples = 12\nvalue = 691.22", fillcolor="#e58139a3"] ;
130 -> 131 ;
132 [label="mse = 12.25\nsamples = 2\nvalue = 661.5", fillcolor="#e5813976"] ;
131 -> 132 ;
133 [label="mse = 160.43\nsamples = 10\nvalue = 694.94", fillcolor="#e58139a9"] ;
131 -> 133 ;
134 [label="Annual Income <= 1147942.0\nmse = 227.13\nsamples = 28\nvalue = 707.62", fillcolor="#e58139bc"] ;
130 -> 134 ;
135 [label="mse = 224.15\nsamples = 23\nvalue = 704.29", fillcolor="#e58139b7"] ;
134 -> 135 ;
136 [label="mse = 109.06\nsamples = 5\nvalue = 717.33", fillcolor="#e58139cb"] ;
134 -> 136 ;
137 [label="mse = 0.0\nsamples = 1\nvalue = 640.0", fillcolor="#e5813954"] ;
129 -> 137 ;
138 [label="Number of Open Accounts <= 10.5\nmse = 330.8\nsamples = 31\nvalue = 715.67", fillcolor="#e58139c9"] ;
128 -> 138 ;
139 [label="Maximum Open Credit <= 361856.0\nmse = 225.83\nsamples = 24\nvalue = 720.49", fillcolor="#e58139d0"] ;
138 -> 139 ;
140 [label="mse = 31.5\nsamples = 5\nvalue = 735.0", fillcolor="#e58139e6"] ;
139 -> 140 ;
141 [label="Maximum Open Credit <= 767932.0\nmse = 211.11\nsamples = 19\nvalue = 717.17", fillcolor="#e58139cb"] ;
139 -> 141 ;
142 [label="mse = 167.69\nsamples = 18\nvalue = 714.84", fillcolor="#e58139c7"] ;
141 -> 142 ;
143 [label="mse = 0.0\nsamples = 1\nvalue = 742.0", fillcolor="#e58139f1"] ;
141 -> 143 ;
144 [label="mse = 326.08\nsamples = 7\nvalue = 698.42", fillcolor="#e58139ae"] ;
138 -> 144 ;
145 [label="Purpose_small_business <= 0.5\nmse = 788.73\nsamples = 292\nvalue = 700.78", fillcolor="#e58139b2"] ;
119 -> 145 ;
146 [label="Monthly Debt <= 7026.01\nmse = 772.68\nsamples = 291\nvalue = 701.15", fillcolor="#e58139b2"] ;
145 -> 146 ;
147 [label="Maximum Open Credit <= 163669.0\nmse = 759.18\nsamples = 52\nvalue = 691.86", fillcolor="#e58139a4"] ;
146 -> 147 ;
148 [label="mse = 1386.24\nsamples = 2\nvalue = 649.4", fillcolor="#e5813963"] ;
147 -> 148 ;
149 [label="Current Credit Balance <= 175161.0\nmse = 600.27\nsamples = 50\nvalue = 694.51", fillcolor="#e58139a8"] ;
147 -> 149 ;
150 [label="Years in current job_< 1 year <= 0.5\nmse = 404.06\nsamples = 25\nvalue = 704.12", fillcolor="#e58139b7"] ;
149 -> 150 ;
151 [label="Monthly Debt <= 5970.84\nmse = 252.75\nsamples = 23\nvalue = 708.26", fillcolor="#e58139bd"] ;
150 -> 151 ;
152 [label="mse = 0.0\nsamples = 2\nvalue = 670.0", fillcolor="#e5813983"] ;
151 -> 152 ;
153 [label="Number of Credit Problems <= 0.5\nmse = 183.03\nsamples = 21\nvalue = 710.32", fillcolor="#e58139c1"] ;
151 -> 153 ;
154 [label="mse = 128.47\nsamples = 12\nvalue = 719.5", fillcolor="#e58139cf"] ;
153 -> 154 ;
155 [label="mse = 79.39\nsamples = 9\nvalue = 701.63", fillcolor="#e58139b3"] ;
153 -> 155 ;
156 [label="mse = 82.69\nsamples = 2\nvalue = 663.75", fillcolor="#e5813979"] ;
150 -> 156 ;
157 [label="Current Credit Balance <= 242231.0\nmse = 596.55\nsamples = 25\nvalue = 683.35", fillcolor="#e5813997"] ;
149 -> 157 ;
158 [label="Annual Income <= 595118.0\nmse = 352.82\nsamples = 14\nvalue = 669.19", fillcolor="#e5813981"] ;
157 -> 158 ;
159 [label="mse = 59.0\nsamples = 3\nvalue = 645.0", fillcolor="#e581395c"] ;
158 -> 159 ;
160 [label="Annual Income <= 763657.5\nmse = 251.87\nsamples = 11\nvalue = 674.88", fillcolor="#e581398a"] ;
158 -> 160 ;
161 [label="mse = 121.0\nsamples = 2\nvalue = 708.0", fillcolor="#e58139bd"] ;
160 -> 161 ;
162 [label="mse = 103.58\nsamples = 9\nvalue = 670.47", fillcolor="#e5813983"] ;
160 -> 162 ;
163 [label="Monthly Debt <= 6526.88\nmse = 307.81\nsamples = 11\nvalue = 701.94", fillcolor="#e58139b4"] ;
157 -> 163 ;
164 [label="mse = 62.64\nsamples = 4\nvalue = 723.4", fillcolor="#e58139d5"] ;
163 -> 164 ;
165 [label="mse = 114.69\nsamples = 7\nvalue = 692.18", fillcolor="#e58139a5"] ;
163 -> 165 ;
166 [label="Monthly Debt <= 7730.05\nmse = 751.65\nsamples = 239\nvalue = 703.26", fillcolor="#e58139b6"] ;
146 -> 166 ;
167 [label="Annual Income <= 823716.5\nmse = 459.59\nsamples = 25\nvalue = 717.61", fillcolor="#e58139cc"] ;
166 -> 167 ;
168 [label="mse = 656.91\nsamples = 9\nvalue = 692.58", fillcolor="#e58139a5"] ;
167 -> 168 ;
169 [label="CurrentLoanAmount <= 443410.0\nmse = 90.89\nsamples = 16\nvalue = 726.44", fillcolor="#e58139d9"] ;
167 -> 169 ;
170 [label="Monthly Debt <= 7377.51\nmse = 63.56\nsamples = 14\nvalue = 728.33", fillcolor="#e58139dc"] ;
169 -> 170 ;
171 [label="mse = 17.73\nsamples = 7\nvalue = 724.22", fillcolor="#e58139d6"] ;
170 -> 171 ;
172 [label="mse = 68.92\nsamples = 7\nvalue = 734.5", fillcolor="#e58139e6"] ;
170 -> 172 ;
173 [label="mse = 67.69\nsamples = 2\nvalue = 712.25", fillcolor="#e58139c3"] ;
169 -> 173 ;
174 [label="Purpose_Medical Bills <= 0.5\nmse = 759.71\nsamples = 214\nvalue = 701.25", fillcolor="#e58139b3"] ;
166 -> 174 ;
175 [label="Years of Credit History <= 15.55\nmse = 728.93\nsamples = 212\nvalue = 701.9", fillcolor="#e58139b4"] ;
174 -> 175 ;
176 [label="Monthly Debt <= 8952.71\nmse = 394.71\nsamples = 48\nvalue = 711.1", fillcolor="#e58139c2"] ;
175 -> 176 ;
177 [label="CurrentLoanAmount <= 396726.0\nmse = 229.86\nsamples = 16\nvalue = 720.18", fillcolor="#e58139d0"] ;
176 -> 177 ;
178 [label="mse = 59.84\nsamples = 15\nvalue = 722.7", fillcolor="#e58139d4"] ;
177 -> 178 ;
179 [label="mse = 0.0\nsamples = 1\nvalue = 652.0", fillcolor="#e5813967"] ;
177 -> 179 ;
180 [label="Monthly Debt <= 10868.29\nmse = 415.21\nsamples = 32\nvalue = 706.21", fillcolor="#e58139ba"] ;
176 -> 180 ;
181 [label="mse = 370.94\nsamples = 29\nvalue = 703.32", fillcolor="#e58139b6"] ;
180 -> 181 ;
182 [label="mse = 13.44\nsamples = 3\nvalue = 733.4", fillcolor="#e58139e4"] ;
180 -> 182 ;
183 [label="Years in current job_8 years <= 0.5\nmse = 801.95\nsamples = 164\nvalue = 698.88", fillcolor="#e58139af"] ;
175 -> 183 ;
184 [label="CurrentLoanAmount <= 368126.0\nmse = 785.37\nsamples = 153\nvalue = 700.73", fillcolor="#e58139b2"] ;
183 -> 184 ;
185 [label="mse = 802.96\nsamples = 108\nvalue = 696.7", fillcolor="#e58139ac"] ;
184 -> 185 ;
186 [label="mse = 603.45\nsamples = 45\nvalue = 710.66", fillcolor="#e58139c1"] ;
184 -> 186 ;
187 [label="Annual Income <= 722703.0\nmse = 427.44\nsamples = 11\nvalue = 675.67", fillcolor="#e581398b"] ;
183 -> 187 ;
188 [label="mse = 0.0\nsamples = 1\nvalue = 638.0", fillcolor="#e5813951"] ;
187 -> 188 ;
189 [label="mse = 172.43\nsamples = 10\nvalue = 683.2", fillcolor="#e5813997"] ;
187 -> 189 ;
190 [label="mse = 952.56\nsamples = 2\nvalue = 659.2", fillcolor="#e5813972"] ;
174 -> 190 ;
191 [label="mse = 0.0\nsamples = 1\nvalue = 644.0", fillcolor="#e581395b"] ;
145 -> 191 ;
192 [label="Maximum Open Credit <= 598081.0\nmse = 979.72\nsamples = 1288\nvalue = 692.0", fillcolor="#e58139a4"] ;
80 -> 192 ;
193 [label="CurrentLoanAmount <= 369732.0\nmse = 1036.93\nsamples = 968\nvalue = 689.42", fillcolor="#e58139a0"] ;
192 -> 193 ;
194 [label="Annual Income <= 1157252.0\nmse = 1029.51\nsamples = 589\nvalue = 692.9", fillcolor="#e58139a6"] ;
193 -> 194 ;
195 [label="Maximum Open Credit <= 240031.0\nmse = 1118.45\nsamples = 451\nvalue = 689.57", fillcolor="#e58139a1"] ;
194 -> 195 ;
196 [label="Years of Credit History <= 10.3\nmse = 1122.79\nsamples = 103\nvalue = 677.02", fillcolor="#e581398d"] ;
195 -> 196 ;
197 [label="mse = 0.0\nsamples = 1\nvalue = 605.0", fillcolor="#e581391f"] ;
196 -> 197 ;
198 [label="Years of Credit History <= 15.05\nmse = 1041.11\nsamples = 102\nvalue = 678.43", fillcolor="#e5813990"] ;
196 -> 198 ;
199 [label="Annual Income <= 649372.5\nmse = 952.85\nsamples = 45\nvalue = 689.12", fillcolor="#e58139a0"] ;
198 -> 199 ;
200 [label="mse = 3.0\nsamples = 2\nvalue = 609.0", fillcolor="#e5813925"] ;
199 -> 200 ;
201 [label="Home Ownership_Home Mortgage <= 0.5\nmse = 638.49\nsamples = 43\nvalue = 693.45", fillcolor="#e58139a7"] ;
199 -> 201 ;
202 [label="Monthly Debt <= 22640.59\nmse = 536.81\nsamples = 30\nvalue = 685.78", fillcolor="#e581399b"] ;
201 -> 202 ;
203 [label="mse = 423.87\nsamples = 27\nvalue = 690.71", fillcolor="#e58139a2"] ;
202 -> 203 ;
204 [label="mse = 330.86\nsamples = 3\nvalue = 659.88", fillcolor="#e5813973"] ;
202 -> 204 ;
205 [label="Years of Credit History <= 13.25\nmse = 472.83\nsamples = 13\nvalue = 709.42", fillcolor="#e58139bf"] ;
201 -> 205 ;
206 [label="mse = 117.25\nsamples = 10\nvalue = 714.74", fillcolor="#e58139c7"] ;
205 -> 206 ;
207 [label="mse = 1307.76\nsamples = 3\nvalue = 689.2", fillcolor="#e58139a0"] ;
205 -> 207 ;
208 [label="Monthly Debt <= 14478.86\nmse = 890.72\nsamples = 57\nvalue = 667.32", fillcolor="#e581397e"] ;
198 -> 208 ;
209 [label="Maximum Open Credit <= 179388.0\nmse = 859.52\nsamples = 20\nvalue = 685.55", fillcolor="#e581399a"] ;
208 -> 209 ;
210 [label="Number of Credit Problems <= 0.5\nmse = 317.89\nsamples = 11\nvalue = 699.33", fillcolor="#e58139b0"] ;
209 -> 210 ;
211 [label="mse = 178.16\nsamples = 5\nvalue = 684.2", fillcolor="#e5813998"] ;
210 -> 211 ;
212 [label="mse = 137.27\nsamples = 6\nvalue = 710.14", fillcolor="#e58139c0"] ;
210 -> 212 ;
213 [label="mse = 1007.6\nsamples = 9\nvalue = 669.0", fillcolor="#e5813981"] ;
209 -> 213 ;
214 [label="CurrentLoanAmount <= 311916.0\nmse = 708.56\nsamples = 37\nvalue = 659.75", fillcolor="#e5813973"] ;
208 -> 214 ;
215 [label="Purpose_Home Improvements <= 0.5\nmse = 585.1\nsamples = 25\nvalue = 650.89", fillcolor="#e5813965"] ;
214 -> 215 ;
216 [label="mse = 417.89\nsamples = 24\nvalue = 648.63", fillcolor="#e5813962"] ;
215 -> 216 ;
217 [label="mse = 0.0\nsamples = 1\nvalue = 730.0", fillcolor="#e58139df"] ;
215 -> 217 ;
218 [label="Years of Credit History <= 20.75\nmse = 451.07\nsamples = 12\nvalue = 678.53", fillcolor="#e5813990"] ;
214 -> 218 ;
219 [label="mse = 490.44\nsamples = 7\nvalue = 690.33", fillcolor="#e58139a2"] ;
218 -> 219 ;
220 [label="mse = 73.69\nsamples = 5\nvalue = 665.25", fillcolor="#e581397b"] ;
218 -> 220 ;
221 [label="Current Credit Balance <= 134216.0\nmse = 1060.34\nsamples = 348\nvalue = 693.11", fillcolor="#e58139a6"] ;
195 -> 221 ;
222 [label="Monthly Debt <= 30642.72\nmse = 467.47\nsamples = 75\nvalue = 709.72", fillcolor="#e58139c0"] ;
221 -> 222 ;
223 [label="CurrentLoanAmount <= 309221.0\nmse = 411.66\nsamples = 73\nvalue = 711.32", fillcolor="#e58139c2"] ;
222 -> 223 ;
224 [label="CurrentLoanAmount <= 272789.0\nmse = 410.81\nsamples = 52\nvalue = 706.2", fillcolor="#e58139ba"] ;
223 -> 224 ;
225 [label="Maximum Open Credit <= 415437.0\nmse = 278.23\nsamples = 41\nvalue = 711.36", fillcolor="#e58139c2"] ;
224 -> 225 ;
226 [label="mse = 229.17\nsamples = 36\nvalue = 708.75", fillcolor="#e58139be"] ;
225 -> 226 ;
227 [label="mse = 123.89\nsamples = 5\nvalue = 734.33", fillcolor="#e58139e5"] ;
225 -> 227 ;
228 [label="Monthly Debt <= 12079.72\nmse = 417.0\nsamples = 11\nvalue = 685.93", fillcolor="#e581399b"] ;
224 -> 228 ;
229 [label="mse = 8.0\nsamples = 2\nvalue = 716.0", fillcolor="#e58139c9"] ;
228 -> 229 ;
230 [label="mse = 236.74\nsamples = 9\nvalue = 678.42", fillcolor="#e5813990"] ;
228 -> 230 ;
231 [label="Years in current job_10+ years <= 0.5\nmse = 232.19\nsamples = 21\nvalue = 722.47", fillcolor="#e58139d3"] ;
223 -> 231 ;
232 [label="Purpose_Buy a Car <= 0.5\nmse = 180.58\nsamples = 15\nvalue = 728.0", fillcolor="#e58139dc"] ;
231 -> 232 ;
233 [label="mse = 89.0\nsamples = 14\nvalue = 731.0", fillcolor="#e58139e0"] ;
232 -> 233 ;
234 [label="mse = 0.0\nsamples = 1\nvalue = 695.0", fillcolor="#e58139a9"] ;
232 -> 234 ;
235 [label="mse = 106.56\nsamples = 6\nvalue = 709.2", fillcolor="#e58139bf"] ;
231 -> 235 ;
236 [label="mse = 36.75\nsamples = 2\nvalue = 666.5", fillcolor="#e581397d"] ;
222 -> 236 ;
237 [label="Purpose_other <= 0.5\nmse = 1122.91\nsamples = 273\nvalue = 688.9", fillcolor="#e58139a0"] ;
221 -> 237 ;
238 [label="Number of Open Accounts <= 11.5\nmse = 1109.42\nsamples = 262\nvalue = 690.71", fillcolor="#e58139a2"] ;
237 -> 238 ;
239 [label="Annual Income <= 495615.0\nmse = 898.17\nsamples = 160\nvalue = 695.62", fillcolor="#e58139aa"] ;
238 -> 239 ;
240 [label="mse = 304.22\nsamples = 2\nvalue = 620.67", fillcolor="#e5813937"] ;
239 -> 240 ;
241 [label="Monthly Debt <= 15093.98\nmse = 839.68\nsamples = 158\nvalue = 696.49", fillcolor="#e58139ab"] ;
239 -> 241 ;
242 [label="mse = 501.05\nsamples = 63\nvalue = 705.17", fillcolor="#e58139b9"] ;
241 -> 242 ;
243 [label="mse = 994.94\nsamples = 95\nvalue = 689.96", fillcolor="#e58139a1"] ;
241 -> 243 ;
244 [label="Monthly Debt <= 16516.79\nmse = 1357.83\nsamples = 102\nvalue = 682.33", fillcolor="#e5813996"] ;
238 -> 244 ;
245 [label="Annual Income <= 833805.5\nmse = 1879.25\nsamples = 49\nvalue = 672.75", fillcolor="#e5813987"] ;
244 -> 245 ;
246 [label="mse = 757.59\nsamples = 21\nvalue = 689.08", fillcolor="#e58139a0"] ;
245 -> 246 ;
247 [label="mse = 2425.28\nsamples = 28\nvalue = 658.36", fillcolor="#e5813971"] ;
245 -> 247 ;
248 [label="Years of Credit History <= 13.3\nmse = 621.18\nsamples = 53\nvalue = 692.29", fillcolor="#e58139a5"] ;
244 -> 248 ;
249 [label="mse = 219.36\nsamples = 11\nvalue = 707.62", fillcolor="#e58139bc"] ;
248 -> 249 ;
250 [label="mse = 648.89\nsamples = 42\nvalue = 688.2", fillcolor="#e581399f"] ;
248 -> 250 ;
251 [label="Years of Credit History <= 21.65\nmse = 226.78\nsamples = 11\nvalue = 656.0", fillcolor="#e581396d"] ;
237 -> 251 ;
252 [label="mse = 265.05\nsamples = 7\nvalue = 663.15", fillcolor="#e5813978"] ;
251 -> 252 ;
253 [label="mse = 24.01\nsamples = 4\nvalue = 646.7", fillcolor="#e581395f"] ;
251 -> 253 ;
254 [label="Number of Open Accounts <= 13.5\nmse = 630.96\nsamples = 138\nvalue = 702.85", fillcolor="#e58139b5"] ;
194 -> 254 ;
255 [label="Maximum Open Credit <= 266508.0\nmse = 531.64\nsamples = 106\nvalue = 706.21", fillcolor="#e58139ba"] ;
254 -> 255 ;
256 [label="Purpose_other <= 0.5\nmse = 543.2\nsamples = 43\nvalue = 697.75", fillcolor="#e58139ad"] ;
255 -> 256 ;
257 [label="Maximum Open Credit <= 263681.0\nmse = 404.33\nsamples = 40\nvalue = 700.52", fillcolor="#e58139b1"] ;
256 -> 257 ;
258 [label="Years in current job_2 years <= 0.5\nmse = 290.78\nsamples = 37\nvalue = 703.78", fillcolor="#e58139b6"] ;
257 -> 258 ;
259 [label="Number of Credit Problems <= 0.5\nmse = 222.64\nsamples = 35\nvalue = 705.25", fillcolor="#e58139b9"] ;
258 -> 259 ;
260 [label="mse = 223.8\nsamples = 23\nvalue = 697.08", fillcolor="#e58139ac"] ;
259 -> 260 ;
261 [label="mse = 53.74\nsamples = 12\nvalue = 714.74", fillcolor="#e58139c7"] ;
259 -> 261 ;
262 [label="mse = 72.25\nsamples = 2\nvalue = 654.5", fillcolor="#e581396b"] ;
258 -> 262 ;
263 [label="mse = 180.0\nsamples = 3\nvalue = 663.0", fillcolor="#e5813978"] ;
257 -> 263 ;
264 [label="mse = 299.19\nsamples = 3\nvalue = 645.75", fillcolor="#e581395d"] ;
256 -> 264 ;
265 [label="Monthly Debt <= 15228.59\nmse = 441.77\nsamples = 63\nvalue = 711.97", fillcolor="#e58139c3"] ;
255 -> 265 ;
266 [label="CurrentLoanAmount <= 259105.0\nmse = 250.66\nsamples = 14\nvalue = 724.65", fillcolor="#e58139d7"] ;
265 -> 266 ;
267 [label="mse = 215.69\nsamples = 7\nvalue = 714.25", fillcolor="#e58139c7"] ;
266 -> 267 ;
268 [label="mse = 42.0\nsamples = 7\nvalue = 736.0", fillcolor="#e58139e8"] ;
266 -> 268 ;
269 [label="Monthly Debt <= 15312.57\nmse = 439.45\nsamples = 49\nvalue = 708.84", fillcolor="#e58139be"] ;
265 -> 269 ;
270 [label="mse = 0.0\nsamples = 1\nvalue = 648.0", fillcolor="#e5813961"] ;
269 -> 270 ;
271 [label="Home Ownership_Home Mortgage <= 0.5\nmse = 326.6\nsamples = 48\nvalue = 710.87", fillcolor="#e58139c1"] ;
269 -> 271 ;
272 [label="Years in current job_< 1 year <= 0.5\nmse = 292.33\nsamples = 18\nvalue = 704.31", fillcolor="#e58139b7"] ;
271 -> 272 ;
273 [label="mse = 214.87\nsamples = 17\nvalue = 705.88", fillcolor="#e58139ba"] ;
272 -> 273 ;
274 [label="mse = 0.0\nsamples = 1\nvalue = 651.0", fillcolor="#e5813965"] ;
272 -> 274 ;
275 [label="Years in current job_4 years <= 0.5\nmse = 303.71\nsamples = 30\nvalue = 715.04", fillcolor="#e58139c8"] ;
271 -> 275 ;
276 [label="mse = 253.08\nsamples = 28\nvalue = 716.96", fillcolor="#e58139cb"] ;
275 -> 276 ;
277 [label="mse = 3.56\nsamples = 2\nvalue = 681.67", fillcolor="#e5813994"] ;
275 -> 277 ;
278 [label="Maximum Open Credit <= 465729.0\nmse = 795.94\nsamples = 32\nvalue = 687.24", fillcolor="#e581399d"] ;
254 -> 278 ;
279 [label="Maximum Open Credit <= 349734.0\nmse = 882.44\nsamples = 17\nvalue = 672.19", fillcolor="#e5813986"] ;
278 -> 279 ;
280 [label="mse = 759.61\nsamples = 8\nvalue = 693.7", fillcolor="#e58139a7"] ;
279 -> 280 ;
281 [label="mse = 191.14\nsamples = 9\nvalue = 652.64", fillcolor="#e5813968"] ;
279 -> 281 ;
282 [label="Monthly Debt <= 19915.52\nmse = 256.59\nsamples = 15\nvalue = 702.29", fillcolor="#e58139b4"] ;
278 -> 282 ;
283 [label="mse = 92.24\nsamples = 4\nvalue = 717.57", fillcolor="#e58139cc"] ;
282 -> 283 ;
284 [label="LoanStatus_Charged Off <= 0.5\nmse = 163.52\nsamples = 11\nvalue = 694.64", fillcolor="#e58139a8"] ;
282 -> 284 ;
285 [label="Maximum Open Credit <= 536272.0\nmse = 76.67\nsamples = 10\nvalue = 697.31", fillcolor="#e58139ad"] ;
284 -> 285 ;
286 [label="mse = 16.56\nsamples = 4\nvalue = 704.33", fillcolor="#e58139b7"] ;
285 -> 286 ;
287 [label="mse = 49.63\nsamples = 6\nvalue = 691.29", fillcolor="#e58139a3"] ;
285 -> 287 ;
288 [label="mse = 0.0\nsamples = 1\nvalue = 660.0", fillcolor="#e5813973"] ;
284 -> 288 ;
289 [label="Monthly Debt <= 11513.81\nmse = 998.0\nsamples = 379\nvalue = 683.81", fillcolor="#e5813998"] ;
193 -> 289 ;
290 [label="mse = 403.68\nsamples = 7\nvalue = 641.94", fillcolor="#e5813957"] ;
289 -> 290 ;
291 [label="Home Ownership_Home Mortgage <= 0.5\nmse = 964.2\nsamples = 372\nvalue = 684.99", fillcolor="#e581399a"] ;
289 -> 291 ;
292 [label="Monthly Debt <= 12110.51\nmse = 805.6\nsamples = 180\nvalue = 680.13", fillcolor="#e5813992"] ;
291 -> 292 ;
293 [label="mse = 275.96\nsamples = 9\nvalue = 711.57", fillcolor="#e58139c2"] ;
292 -> 293 ;
294 [label="Years of Credit History <= 27.85\nmse = 778.93\nsamples = 171\nvalue = 678.49", fillcolor="#e5813990"] ;
292 -> 294 ;
295 [label="Years of Credit History <= 16.25\nmse = 763.13\nsamples = 168\nvalue = 679.35", fillcolor="#e5813991"] ;
294 -> 295 ;
296 [label="Current Credit Balance <= 361693.5\nmse = 746.96\nsamples = 96\nvalue = 673.75", fillcolor="#e5813988"] ;
295 -> 296 ;
297 [label="Number of Open Accounts <= 15.5\nmse = 725.58\nsamples = 84\nvalue = 677.1", fillcolor="#e581398d"] ;
296 -> 297 ;
298 [label="mse = 621.38\nsamples = 74\nvalue = 679.73", fillcolor="#e5813992"] ;
297 -> 298 ;
299 [label="mse = 1042.56\nsamples = 10\nvalue = 653.46", fillcolor="#e5813969"] ;
297 -> 299 ;
300 [label="Current Credit Balance <= 379610.5\nmse = 339.9\nsamples = 12\nvalue = 652.0", fillcolor="#e5813967"] ;
296 -> 300 ;
301 [label="mse = 211.84\nsamples = 3\nvalue = 631.86", fillcolor="#e5813948"] ;
300 -> 301 ;
302 [label="mse = 72.75\nsamples = 9\nvalue = 662.85", fillcolor="#e5813978"] ;
300 -> 302 ;
303 [label="Years in current job_< 1 year <= 0.5\nmse = 686.48\nsamples = 72\nvalue = 686.86", fillcolor="#e581399c"] ;
295 -> 303 ;
304 [label="CurrentLoanAmount <= 434434.0\nmse = 602.91\nsamples = 68\nvalue = 688.58", fillcolor="#e581399f"] ;
303 -> 304 ;
305 [label="mse = 534.43\nsamples = 33\nvalue = 678.92", fillcolor="#e5813990"] ;
304 -> 305 ;
306 [label="mse = 512.04\nsamples = 35\nvalue = 696.91", fillcolor="#e58139ac"] ;
304 -> 306 ;
307 [label="mse = 690.19\nsamples = 4\nvalue = 640.25", fillcolor="#e5813955"] ;
303 -> 307 ;
308 [label="mse = 5.56\nsamples = 3\nvalue = 640.67", fillcolor="#e5813956"] ;
294 -> 308 ;
309 [label="Current Credit Balance <= 244644.0\nmse = 1073.23\nsamples = 192\nvalue = 689.71", fillcolor="#e58139a1"] ;
291 -> 309 ;
310 [label="Number of Credit Problems <= 1.5\nmse = 1065.53\nsamples = 112\nvalue = 695.14", fillcolor="#e58139a9"] ;
309 -> 310 ;
311 [label="Maximum Open Credit <= 275770.0\nmse = 995.44\nsamples = 109\nvalue = 696.56", fillcolor="#e58139ab"] ;
310 -> 311 ;
312 [label="Purpose_other <= 0.5\nmse = 878.41\nsamples = 32\nvalue = 684.37", fillcolor="#e5813999"] ;
311 -> 312 ;
313 [label="Number of Credit Problems <= 0.5\nmse = 715.27\nsamples = 31\nvalue = 687.34", fillcolor="#e581399d"] ;
312 -> 313 ;
314 [label="mse = 606.92\nsamples = 21\nvalue = 679.13", fillcolor="#e5813991"] ;
313 -> 314 ;
315 [label="mse = 493.78\nsamples = 10\nvalue = 704.93", fillcolor="#e58139b8"] ;
313 -> 315 ;
316 [label="mse = 0.0\nsamples = 1\nvalue = 619.0", fillcolor="#e5813934"] ;
312 -> 316 ;
317 [label="Number of Credit Problems <= 0.5\nmse = 961.5\nsamples = 77\nvalue = 701.23", fillcolor="#e58139b3"] ;
311 -> 317 ;
318 [label="Number of Open Accounts <= 12.5\nmse = 741.04\nsamples = 56\nvalue = 708.45", fillcolor="#e58139be"] ;
317 -> 318 ;
319 [label="mse = 445.8\nsamples = 41\nvalue = 715.97", fillcolor="#e58139c9"] ;
318 -> 319 ;
320 [label="mse = 991.49\nsamples = 15\nvalue = 691.12", fillcolor="#e58139a3"] ;
318 -> 320 ;
321 [label="Years of Credit History <= 16.5\nmse = 1053.73\nsamples = 21\nvalue = 682.97", fillcolor="#e5813996"] ;
317 -> 321 ;
322 [label="mse = 1101.47\nsamples = 10\nvalue = 664.24", fillcolor="#e581397a"] ;
321 -> 322 ;
323 [label="mse = 303.97\nsamples = 11\nvalue = 701.71", fillcolor="#e58139b3"] ;
321 -> 323 ;
324 [label="mse = 393.0\nsamples = 3\nvalue = 636.0", fillcolor="#e581394e"] ;
310 -> 324 ;
325 [label="Years in current job_10+ years <= 0.5\nmse = 983.25\nsamples = 80\nvalue = 682.02", fillcolor="#e5813995"] ;
309 -> 325 ;
326 [label="Years of Credit History <= 19.4\nmse = 816.31\nsamples = 52\nvalue = 691.13", fillcolor="#e58139a3"] ;
325 -> 326 ;
327 [label="CurrentLoanAmount <= 397144.0\nmse = 450.95\nsamples = 42\nvalue = 698.59", fillcolor="#e58139ae"] ;
326 -> 327 ;
328 [label="mse = 160.21\nsamples = 7\nvalue = 678.3", fillcolor="#e581398f"] ;
327 -> 328 ;
329 [label="Years of Credit History <= 16.3\nmse = 402.16\nsamples = 35\nvalue = 703.2", fillcolor="#e58139b6"] ;
327 -> 329 ;
330 [label="mse = 429.53\nsamples = 22\nvalue = 696.65", fillcolor="#e58139ac"] ;
329 -> 330 ;
331 [label="mse = 211.11\nsamples = 13\nvalue = 712.67", fillcolor="#e58139c4"] ;
329 -> 331 ;
332 [label="Maximum Open Credit <= 482053.0\nmse = 1226.81\nsamples = 10\nvalue = 665.94", fillcolor="#e581397c"] ;
326 -> 332 ;
333 [label="mse = 716.16\nsamples = 7\nvalue = 686.8", fillcolor="#e581399c"] ;
332 -> 333 ;
334 [label="mse = 143.47\nsamples = 3\nvalue = 631.17", fillcolor="#e5813947"] ;
332 -> 334 ;
335 [label="Purpose_Debt Consolidation <= 0.5\nmse = 937.99\nsamples = 28\nvalue = 669.26", fillcolor="#e5813981"] ;
325 -> 335 ;
336 [label="mse = 106.69\nsamples = 3\nvalue = 635.75", fillcolor="#e581394e"] ;
335 -> 336 ;
337 [label="Current Credit Balance <= 268517.5\nmse = 841.71\nsamples = 25\nvalue = 675.64", fillcolor="#e581398b"] ;
335 -> 337 ;
338 [label="mse = 699.02\nsamples = 9\nvalue = 660.44", fillcolor="#e5813974"] ;
337 -> 338 ;
339 [label="Number of Open Accounts <= 12.0\nmse = 645.54\nsamples = 16\nvalue = 687.04", fillcolor="#e581399d"] ;
337 -> 339 ;
340 [label="mse = 349.27\nsamples = 12\nvalue = 694.94", fillcolor="#e58139a9"] ;
339 -> 340 ;
341 [label="mse = 784.89\nsamples = 4\nvalue = 663.33", fillcolor="#e5813978"] ;
339 -> 341 ;
342 [label="Current Credit Balance <= 398696.0\nmse = 711.57\nsamples = 320\nvalue = 700.15", fillcolor="#e58139b1"] ;
192 -> 342 ;
343 [label="Number of Open Accounts <= 11.5\nmse = 653.28\nsamples = 198\nvalue = 705.7", fillcolor="#e58139b9"] ;
342 -> 343 ;
344 [label="Monthly Debt <= 12409.09\nmse = 367.09\nsamples = 69\nvalue = 716.9", fillcolor="#e58139cb"] ;
343 -> 344 ;
345 [label="CurrentLoanAmount <= 364760.0\nmse = 940.03\nsamples = 10\nvalue = 696.21", fillcolor="#e58139ab"] ;
344 -> 345 ;
346 [label="mse = 213.19\nsamples = 3\nvalue = 660.75", fillcolor="#e5813974"] ;
345 -> 346 ;
347 [label="mse = 526.44\nsamples = 7\nvalue = 710.4", fillcolor="#e58139c1"] ;
345 -> 347 ;
348 [label="Monthly Debt <= 28728.95\nmse = 212.03\nsamples = 59\nvalue = 719.92", fillcolor="#e58139cf"] ;
344 -> 348 ;
349 [label="CurrentLoanAmount <= 263285.0\nmse = 157.44\nsamples = 57\nvalue = 720.99", fillcolor="#e58139d1"] ;
348 -> 349 ;
350 [label="mse = 138.73\nsamples = 9\nvalue = 732.12", fillcolor="#e58139e2"] ;
349 -> 350 ;
351 [label="CurrentLoanAmount <= 266904.0\nmse = 130.62\nsamples = 48\nvalue = 718.71", fillcolor="#e58139cd"] ;
349 -> 351 ;
352 [label="mse = 240.25\nsamples = 2\nvalue = 695.5", fillcolor="#e58139aa"] ;
351 -> 352 ;
353 [label="Current Credit Balance <= 215583.5\nmse = 113.19\nsamples = 46\nvalue = 719.32", fillcolor="#e58139ce"] ;
351 -> 353 ;
354 [label="mse = 90.4\nsamples = 8\nvalue = 710.46", fillcolor="#e58139c1"] ;
353 -> 354 ;
355 [label="Monthly Debt <= 27103.5\nmse = 98.38\nsamples = 38\nvalue = 721.14", fillcolor="#e58139d1"] ;
353 -> 355 ;
356 [label="mse = 90.53\nsamples = 36\nvalue = 720.2", fillcolor="#e58139d0"] ;
355 -> 356 ;
357 [label="mse = 9.0\nsamples = 2\nvalue = 735.0", fillcolor="#e58139e6"] ;
355 -> 357 ;
358 [label="mse = 182.25\nsamples = 2\nvalue = 669.5", fillcolor="#e5813982"] ;
348 -> 358 ;
359 [label="Current Credit Balance <= 386042.0\nmse = 703.86\nsamples = 129\nvalue = 699.51", fillcolor="#e58139b0"] ;
343 -> 359 ;
360 [label="Years of Credit History <= 11.45\nmse = 603.92\nsamples = 124\nvalue = 701.06", fillcolor="#e58139b2"] ;
359 -> 360 ;
361 [label="mse = 573.06\nsamples = 5\nvalue = 664.22", fillcolor="#e581397a"] ;
360 -> 361 ;
362 [label="Monthly Debt <= 32904.2\nmse = 535.82\nsamples = 119\nvalue = 702.86", fillcolor="#e58139b5"] ;
360 -> 362 ;
363 [label="Current Credit Balance <= 175769.0\nmse = 491.29\nsamples = 111\nvalue = 704.3", fillcolor="#e58139b7"] ;
362 -> 363 ;
364 [label="Monthly Debt <= 16132.71\nmse = 777.73\nsamples = 24\nvalue = 692.1", fillcolor="#e58139a5"] ;
363 -> 364 ;
365 [label="Maximum Open Credit <= 631983.0\nmse = 695.1\nsamples = 13\nvalue = 674.95", fillcolor="#e581398a"] ;
364 -> 365 ;
366 [label="mse = 4.0\nsamples = 2\nvalue = 717.0", fillcolor="#e58139cb"] ;
365 -> 366 ;
367 [label="mse = 543.88\nsamples = 11\nvalue = 670.0", fillcolor="#e5813983"] ;
365 -> 367 ;
368 [label="Annual Income <= 761976.0\nmse = 311.04\nsamples = 11\nvalue = 708.4", fillcolor="#e58139be"] ;
364 -> 368 ;
369 [label="mse = 128.0\nsamples = 2\nvalue = 674.0", fillcolor="#e5813989"] ;
368 -> 369 ;
370 [label="mse = 97.66\nsamples = 9\nvalue = 714.47", fillcolor="#e58139c7"] ;
368 -> 370 ;
371 [label="Current Credit Balance <= 341107.0\nmse = 353.1\nsamples = 87\nvalue = 707.83", fillcolor="#e58139bd"] ;
363 -> 371 ;
372 [label="Years in current job_5 years <= 0.5\nmse = 262.7\nsamples = 65\nvalue = 711.51", fillcolor="#e58139c2"] ;
371 -> 372 ;
373 [label="mse = 250.11\nsamples = 59\nvalue = 713.3", fillcolor="#e58139c5"] ;
372 -> 373 ;
374 [label="mse = 101.17\nsamples = 6\nvalue = 695.91", fillcolor="#e58139aa"] ;
372 -> 374 ;
375 [label="Maximum Open Credit <= 688721.0\nmse = 448.47\nsamples = 22\nvalue = 693.75", fillcolor="#e58139a7"] ;
371 -> 375 ;
376 [label="mse = 232.16\nsamples = 8\nvalue = 710.8", fillcolor="#e58139c1"] ;
375 -> 376 ;
377 [label="mse = 317.42\nsamples = 14\nvalue = 684.28", fillcolor="#e5813999"] ;
375 -> 377 ;
378 [label="mse = 641.21\nsamples = 8\nvalue = 677.7", fillcolor="#e581398e"] ;
362 -> 378 ;
379 [label="mse = 1373.81\nsamples = 5\nvalue = 649.83", fillcolor="#e5813964"] ;
359 -> 379 ;
380 [label="Years of Credit History <= 17.65\nmse = 665.47\nsamples = 122\nvalue = 690.45", fillcolor="#e58139a2"] ;
342 -> 380 ;
381 [label="Purpose_other <= 0.5\nmse = 705.38\nsamples = 66\nvalue = 684.9", fillcolor="#e5813999"] ;
380 -> 381 ;
382 [label="Number of Open Accounts <= 24.5\nmse = 606.08\nsamples = 64\nvalue = 686.35", fillcolor="#e581399c"] ;
381 -> 382 ;
383 [label="Current Credit Balance <= 479750.0\nmse = 542.06\nsamples = 63\nvalue = 687.21", fillcolor="#e581399d"] ;
382 -> 383 ;
384 [label="Monthly Debt <= 24047.73\nmse = 612.67\nsamples = 31\nvalue = 696.33", fillcolor="#e58139ab"] ;
383 -> 384 ;
385 [label="CurrentLoanAmount <= 432960.0\nmse = 701.1\nsamples = 19\nvalue = 688.28", fillcolor="#e581399f"] ;
384 -> 385 ;
386 [label="Years in current job_3 years <= 0.5\nmse = 548.81\nsamples = 15\nvalue = 681.17", fillcolor="#e5813994"] ;
385 -> 386 ;
387 [label="mse = 362.2\nsamples = 14\nvalue = 676.73", fillcolor="#e581398d"] ;
386 -> 387 ;
388 [label="mse = 0.0\nsamples = 1\nvalue = 730.0", fillcolor="#e58139df"] ;
386 -> 388 ;
389 [label="mse = 25.04\nsamples = 4\nvalue = 722.4", fillcolor="#e58139d3"] ;
385 -> 389 ;
390 [label="Current Credit Balance <= 414019.5\nmse = 121.43\nsamples = 12\nvalue = 710.94", fillcolor="#e58139c1"] ;
384 -> 390 ;
391 [label="mse = 36.0\nsamples = 2\nvalue = 691.0", fillcolor="#e58139a3"] ;
390 -> 391 ;
392 [label="Annual Income <= 883338.5\nmse = 68.74\nsamples = 10\nvalue = 713.79", fillcolor="#e58139c6"] ;
390 -> 392 ;
393 [label="mse = 48.22\nsamples = 3\nvalue = 700.67", fillcolor="#e58139b2"] ;
392 -> 393 ;
394 [label="mse = 14.6\nsamples = 7\nvalue = 717.36", fillcolor="#e58139cb"] ;
392 -> 394 ;
395 [label="Current Credit Balance <= 591080.5\nmse = 336.2\nsamples = 32\nvalue = 679.0", fillcolor="#e5813990"] ;
383 -> 395 ;
396 [label="Maximum Open Credit <= 667909.0\nmse = 305.01\nsamples = 28\nvalue = 675.34", fillcolor="#e581398b"] ;
395 -> 396 ;
397 [label="mse = 302.85\nsamples = 8\nvalue = 663.5", fillcolor="#e5813979"] ;
396 -> 397 ;
398 [label="Home Ownership_Home Mortgage <= 0.5\nmse = 245.88\nsamples = 20\nvalue = 679.16", fillcolor="#e5813991"] ;
396 -> 398 ;
399 [label="mse = 146.63\nsamples = 13\nvalue = 671.65", fillcolor="#e5813985"] ;
398 -> 399 ;
400 [label="mse = 137.24\nsamples = 7\nvalue = 692.82", fillcolor="#e58139a6"] ;
398 -> 400 ;
401 [label="mse = 139.56\nsamples = 4\nvalue = 695.67", fillcolor="#e58139aa"] ;
395 -> 401 ;
402 [label="mse = 0.0\nsamples = 1\nvalue = 605.0", fillcolor="#e581391f"] ;
382 -> 402 ;
403 [label="mse = 484.0\nsamples = 2\nvalue = 615.0", fillcolor="#e581392e"] ;
381 -> 403 ;
404 [label="Number of Open Accounts <= 16.0\nmse = 530.22\nsamples = 56\nvalue = 697.34", fillcolor="#e58139ad"] ;
380 -> 404 ;
405 [label="Current Credit Balance <= 584316.5\nmse = 486.96\nsamples = 44\nvalue = 701.61", fillcolor="#e58139b3"] ;
404 -> 405 ;
406 [label="Number of Open Accounts <= 7.5\nmse = 413.16\nsamples = 40\nvalue = 703.88", fillcolor="#e58139b7"] ;
405 -> 406 ;
407 [label="mse = 238.45\nsamples = 8\nvalue = 719.5", fillcolor="#e58139cf"] ;
406 -> 407 ;
408 [label="Years in current job_8 years <= 0.5\nmse = 387.35\nsamples = 32\nvalue = 700.55", fillcolor="#e58139b2"] ;
406 -> 408 ;
409 [label="CurrentLoanAmount <= 408848.0\nmse = 264.51\nsamples = 29\nvalue = 702.41", fillcolor="#e58139b4"] ;
408 -> 409 ;
410 [label="Years in current job_10+ years <= 0.5\nmse = 189.59\nsamples = 13\nvalue = 710.1", fillcolor="#e58139c0"] ;
409 -> 410 ;
411 [label="mse = 111.36\nsamples = 8\nvalue = 700.2", fillcolor="#e58139b1"] ;
410 -> 411 ;
412 [label="mse = 71.8\nsamples = 5\nvalue = 720.0", fillcolor="#e58139cf"] ;
410 -> 412 ;
413 [label="Years of Credit History <= 20.75\nmse = 236.58\nsamples = 16\nvalue = 696.0", fillcolor="#e58139ab"] ;
409 -> 413 ;
414 [label="mse = 91.96\nsamples = 5\nvalue = 685.57", fillcolor="#e581399a"] ;
413 -> 414 ;
415 [label="mse = 232.91\nsamples = 11\nvalue = 700.29", fillcolor="#e58139b1"] ;
413 -> 415 ;
416 [label="mse = 1397.56\nsamples = 3\nvalue = 673.33", fillcolor="#e5813988"] ;
408 -> 416 ;
417 [label="mse = 418.19\nsamples = 4\nvalue = 669.25", fillcolor="#e5813981"] ;
405 -> 417 ;
418 [label="Maximum Open Credit <= 619542.0\nmse = 406.32\nsamples = 12\nvalue = 682.89", fillcolor="#e5813996"] ;
404 -> 418 ;
419 [label="mse = 0.0\nsamples = 1\nvalue = 650.0", fillcolor="#e5813964"] ;
418 -> 419 ;
420 [label="Annual Income <= 1061900.5\nmse = 305.0\nsamples = 11\nvalue = 687.0", fillcolor="#e581399d"] ;
418 -> 420 ;
421 [label="mse = 364.12\nsamples = 4\nvalue = 675.14", fillcolor="#e581398a"] ;
420 -> 421 ;
422 [label="mse = 64.62\nsamples = 7\nvalue = 696.22", fillcolor="#e58139ab"] ;
420 -> 422 ;
423 [label="Annual Income <= 1379941.5\nmse = 676.89\nsamples = 1596\nvalue = 704.84", fillcolor="#e58139b8"] ;
3 -> 423 ;
424 [label="Annual Income <= 1379419.0\nmse = 1.69\nsamples = 693\nvalue = 716.28", fillcolor="#e58139ca"] ;
423 -> 424 ;
425 [label="Annual Income <= 1379172.0\nmse = 1.2\nsamples = 692\nvalue = 716.26", fillcolor="#e58139ca"] ;
424 -> 425 ;
426 [label="Annual Income <= 1378972.5\nmse = 0.84\nsamples = 690\nvalue = 716.29", fillcolor="#e58139ca"] ;
425 -> 426 ;
427 [label="Annual Income <= 1378602.0\nmse = 0.25\nsamples = 689\nvalue = 716.26", fillcolor="#e58139ca"] ;
426 -> 427 ;
428 [label="Annual Income <= 1378290.75\nmse = 0.0\nsamples = 688\nvalue = 716.28", fillcolor="#e58139ca"] ;
427 -> 428 ;
429 [label="mse = -0.0\nsamples = 687\nvalue = 716.28", fillcolor="#e58139ca"] ;
428 -> 429 ;
430 [label="mse = -0.0\nsamples = 1\nvalue = 717.0", fillcolor="#e58139cb"] ;
428 -> 430 ;
431 [label="mse = 0.0\nsamples = 1\nvalue = 700.0", fillcolor="#e58139b1"] ;
427 -> 431 ;
432 [label="mse = -0.0\nsamples = 1\nvalue = 741.0", fillcolor="#e58139f0"] ;
426 -> 432 ;
433 [label="mse = 2.25\nsamples = 2\nvalue = 702.5", fillcolor="#e58139b4"] ;
425 -> 433 ;
434 [label="mse = 0.0\nsamples = 1\nvalue = 739.0", fillcolor="#e58139ed"] ;
424 -> 434 ;
435 [label="Number of Open Accounts <= 26.5\nmse = 1003.47\nsamples = 903\nvalue = 696.51", fillcolor="#e58139ab"] ;
423 -> 435 ;
436 [label="CurrentLoanAmount <= 356092.0\nmse = 955.14\nsamples = 894\nvalue = 697.15", fillcolor="#e58139ac"] ;
435 -> 436 ;
437 [label="Purpose_other <= 0.5\nmse = 803.68\nsamples = 376\nvalue = 702.32", fillcolor="#e58139b4"] ;
436 -> 437 ;
438 [label="Number of Open Accounts <= 2.5\nmse = 744.92\nsamples = 347\nvalue = 704.07", fillcolor="#e58139b7"] ;
437 -> 438 ;
439 [label="mse = 0.0\nsamples = 1\nvalue = 588.0", fillcolor="#e5813905"] ;
438 -> 439 ;
440 [label="Number of Credit Problems <= 0.5\nmse = 721.69\nsamples = 346\nvalue = 704.28", fillcolor="#e58139b7"] ;
438 -> 440 ;
441 [label="Home Ownership_Home Mortgage <= 0.5\nmse = 702.92\nsamples = 283\nvalue = 706.38", fillcolor="#e58139ba"] ;
440 -> 441 ;
442 [label="Years in current job_8 years <= 0.5\nmse = 914.79\nsamples = 100\nvalue = 699.93", fillcolor="#e58139b1"] ;
441 -> 442 ;
443 [label="Years in current job_5 years <= 0.5\nmse = 763.35\nsamples = 93\nvalue = 702.47", fillcolor="#e58139b4"] ;
442 -> 443 ;
444 [label="Current Credit Balance <= 79534.0\nmse = 715.69\nsamples = 88\nvalue = 700.48", fillcolor="#e58139b1"] ;
443 -> 444 ;
445 [label="Monthly Debt <= 24533.75\nmse = 627.82\nsamples = 10\nvalue = 675.0", fillcolor="#e581398a"] ;
444 -> 445 ;
446 [label="mse = 377.78\nsamples = 8\nvalue = 667.0", fillcolor="#e581397e"] ;
445 -> 446 ;
447 [label="mse = 169.0\nsamples = 2\nvalue = 711.0", fillcolor="#e58139c2"] ;
445 -> 447 ;
448 [label="LoanStatus_Fully Paid <= 0.5\nmse = 661.27\nsamples = 78\nvalue = 702.72", fillcolor="#e58139b5"] ;
444 -> 448 ;
449 [label="mse = 316.11\nsamples = 20\nvalue = 714.79", fillcolor="#e58139c7"] ;
448 -> 449 ;
450 [label="mse = 720.62\nsamples = 58\nvalue = 697.45", fillcolor="#e58139ad"] ;
448 -> 450 ;
451 [label="mse = 621.44\nsamples = 5\nvalue = 729.6", fillcolor="#e58139de"] ;
443 -> 451 ;
452 [label="mse = 1564.0\nsamples = 7\nvalue = 658.67", fillcolor="#e5813971"] ;
442 -> 452 ;
453 [label="Maximum Open Credit <= 636163.0\nmse = 553.33\nsamples = 183\nvalue = 709.87", fillcolor="#e58139c0"] ;
441 -> 453 ;
454 [label="Current Credit Balance <= 436154.5\nmse = 588.83\nsamples = 150\nvalue = 707.44", fillcolor="#e58139bc"] ;
453 -> 454 ;
455 [label="Monthly Debt <= 27641.48\nmse = 552.0\nsamples = 148\nvalue = 708.05", fillcolor="#e58139bd"] ;
454 -> 455 ;
456 [label="Years of Credit History <= 33.25\nmse = 555.08\nsamples = 115\nvalue = 705.78", fillcolor="#e58139ba"] ;
455 -> 456 ;
457 [label="mse = 517.05\nsamples = 114\nvalue = 706.26", fillcolor="#e58139ba"] ;
456 -> 457 ;
458 [label="mse = 0.0\nsamples = 1\nvalue = 620.0", fillcolor="#e5813936"] ;
456 -> 458 ;
459 [label="Maximum Open Credit <= 604483.0\nmse = 436.09\nsamples = 33\nvalue = 717.16", fillcolor="#e58139cb"] ;
455 -> 459 ;
460 [label="mse = 277.74\nsamples = 31\nvalue = 719.47", fillcolor="#e58139cf"] ;
459 -> 460 ;
461 [label="mse = 1260.25\nsamples = 2\nvalue = 667.5", fillcolor="#e581397f"] ;
459 -> 461 ;
462 [label="mse = 25.0\nsamples = 2\nvalue = 639.0", fillcolor="#e5813953"] ;
454 -> 462 ;
463 [label="Maximum Open Credit <= 783827.0\nmse = 299.21\nsamples = 33\nvalue = 719.43", fillcolor="#e58139cf"] ;
453 -> 463 ;
464 [label="Monthly Debt <= 40358.76\nmse = 187.62\nsamples = 30\nvalue = 722.34", fillcolor="#e58139d3"] ;
463 -> 464 ;
465 [label="Years of Credit History <= 11.1\nmse = 154.35\nsamples = 27\nvalue = 724.24", fillcolor="#e58139d6"] ;
464 -> 465 ;
466 [label="mse = 0.0\nsamples = 1\nvalue = 679.0", fillcolor="#e5813990"] ;
465 -> 466 ;
467 [label="mse = 114.03\nsamples = 26\nvalue = 725.19", fillcolor="#e58139d7"] ;
465 -> 467 ;
468 [label="mse = 6.0\nsamples = 3\nvalue = 699.0", fillcolor="#e58139af"] ;
464 -> 468 ;
469 [label="mse = 441.84\nsamples = 3\nvalue = 688.6", fillcolor="#e581399f"] ;
463 -> 469 ;
470 [label="Monthly Debt <= 15476.26\nmse = 707.27\nsamples = 63\nvalue = 695.73", fillcolor="#e58139aa"] ;
440 -> 470 ;
471 [label="Years of Credit History <= 18.55\nmse = 206.62\nsamples = 16\nvalue = 710.52", fillcolor="#e58139c1"] ;
470 -> 471 ;
472 [label="mse = 151.96\nsamples = 9\nvalue = 717.67", fillcolor="#e58139cc"] ;
471 -> 472 ;
473 [label="mse = 131.24\nsamples = 7\nvalue = 701.58", fillcolor="#e58139b3"] ;
471 -> 473 ;
474 [label="Annual Income <= 2414738.5\nmse = 776.97\nsamples = 47\nvalue = 690.8", fillcolor="#e58139a3"] ;
470 -> 474 ;
475 [label="CurrentLoanAmount <= 264605.0\nmse = 673.77\nsamples = 40\nvalue = 686.38", fillcolor="#e581399c"] ;
474 -> 475 ;
476 [label="CurrentLoanAmount <= 219120.0\nmse = 723.27\nsamples = 15\nvalue = 671.25", fillcolor="#e5813984"] ;
475 -> 476 ;
477 [label="mse = 328.89\nsamples = 6\nvalue = 695.67", fillcolor="#e58139aa"] ;
476 -> 477 ;
478 [label="mse = 387.57\nsamples = 9\nvalue = 656.6", fillcolor="#e581396e"] ;
476 -> 478 ;
479 [label="Maximum Open Credit <= 458513.0\nmse = 460.25\nsamples = 25\nvalue = 694.44", fillcolor="#e58139a8"] ;
475 -> 479 ;
480 [label="Number of Open Accounts <= 7.0\nmse = 454.67\nsamples = 18\nvalue = 701.12", fillcolor="#e58139b2"] ;
479 -> 480 ;
481 [label="mse = 464.0\nsamples = 3\nvalue = 672.0", fillcolor="#e5813986"] ;
480 -> 481 ;
482 [label="mse = 211.59\nsamples = 15\nvalue = 707.85", fillcolor="#e58139bd"] ;
480 -> 482 ;
483 [label="mse = 93.69\nsamples = 7\nvalue = 678.0", fillcolor="#e581398f"] ;
479 -> 483 ;
484 [label="mse = 610.19\nsamples = 7\nvalue = 716.25", fillcolor="#e58139ca"] ;
474 -> 484 ;
485 [label="Current Credit Balance <= 372789.5\nmse = 1038.13\nsamples = 29\nvalue = 682.23", fillcolor="#e5813995"] ;
437 -> 485 ;
486 [label="Years in current job_10+ years <= 0.5\nmse = 844.58\nsamples = 27\nvalue = 686.24", fillcolor="#e581399c"] ;
485 -> 486 ;
487 [label="LoanStatus_Charged Off <= 0.5\nmse = 344.59\nsamples = 11\nvalue = 703.25", fillcolor="#e58139b6"] ;
486 -> 487 ;
488 [label="Annual Income <= 1866446.0\nmse = 89.31\nsamples = 10\nvalue = 706.95", fillcolor="#e58139bb"] ;
487 -> 488 ;
489 [label="mse = 45.97\nsamples = 7\nvalue = 703.6", fillcolor="#e58139b6"] ;
488 -> 489 ;
490 [label="mse = 52.25\nsamples = 3\nvalue = 719.5", fillcolor="#e58139cf"] ;
488 -> 490 ;
491 [label="mse = 0.0\nsamples = 1\nvalue = 633.0", fillcolor="#e581394a"] ;
487 -> 491 ;
492 [label="Annual Income <= 1389451.0\nmse = 828.15\nsamples = 16\nvalue = 672.64", fillcolor="#e5813987"] ;
486 -> 492 ;
493 [label="mse = 0.0\nsamples = 1\nvalue = 726.0", fillcolor="#e58139d9"] ;
492 -> 493 ;
494 [label="Maximum Open Credit <= 698940.0\nmse = 499.87\nsamples = 15\nvalue = 665.36", fillcolor="#e581397b"] ;
492 -> 494 ;
495 [label="Monthly Debt <= 59456.03\nmse = 319.82\nsamples = 13\nvalue = 659.42", fillcolor="#e5813972"] ;
494 -> 495 ;
496 [label="Monthly Debt <= 35284.14\nmse = 130.53\nsamples = 12\nvalue = 662.72", fillcolor="#e5813977"] ;
495 -> 496 ;
497 [label="mse = 38.36\nsamples = 9\nvalue = 658.67", fillcolor="#e5813971"] ;
496 -> 497 ;
498 [label="mse = 98.0\nsamples = 3\nvalue = 683.0", fillcolor="#e5813997"] ;
496 -> 498 ;
499 [label="mse = 0.0\nsamples = 1\nvalue = 600.0", fillcolor="#e5813917"] ;
495 -> 499 ;
500 [label="mse = 0.0\nsamples = 2\nvalue = 703.0", fillcolor="#e58139b5"] ;
494 -> 500 ;
501 [label="mse = 72.0\nsamples = 2\nvalue = 622.0", fillcolor="#e5813939"] ;
485 -> 501 ;
502 [label="CurrentLoanAmount <= 356290.0\nmse = 1031.09\nsamples = 518\nvalue = 693.42", fillcolor="#e58139a7"] ;
436 -> 502 ;
503 [label="mse = 0.0\nsamples = 1\nvalue = 616.0", fillcolor="#e5813930"] ;
502 -> 503 ;
504 [label="Maximum Open Credit <= 438812.0\nmse = 1000.79\nsamples = 517\nvalue = 693.89", fillcolor="#e58139a7"] ;
502 -> 504 ;
505 [label="Years in current job_6 years <= 0.5\nmse = 1138.14\nsamples = 222\nvalue = 687.98", fillcolor="#e581399e"] ;
504 -> 505 ;
506 [label="Years of Credit History <= 9.15\nmse = 1047.32\nsamples = 212\nvalue = 689.8", fillcolor="#e58139a1"] ;
505 -> 506 ;
507 [label="Annual Income <= 1520836.0\nmse = 532.41\nsamples = 10\nvalue = 651.58", fillcolor="#e5813966"] ;
506 -> 507 ;
508 [label="mse = 132.12\nsamples = 5\nvalue = 635.14", fillcolor="#e581394d"] ;
507 -> 508 ;
509 [label="mse = 184.64\nsamples = 5\nvalue = 674.6", fillcolor="#e581398a"] ;
507 -> 509 ;
510 [label="Monthly Debt <= 7339.23\nmse = 1010.76\nsamples = 202\nvalue = 691.2", fillcolor="#e58139a3"] ;
506 -> 510 ;
511 [label="Number of Open Accounts <= 4.5\nmse = 488.28\nsamples = 16\nvalue = 714.85", fillcolor="#e58139c7"] ;
510 -> 511 ;
512 [label="mse = 735.11\nsamples = 5\nvalue = 698.67", fillcolor="#e58139af"] ;
511 -> 512 ;
513 [label="Annual Income <= 1603818.5\nmse = 145.65\nsamples = 11\nvalue = 723.41", fillcolor="#e58139d5"] ;
511 -> 513 ;
514 [label="mse = 55.69\nsamples = 4\nvalue = 708.25", fillcolor="#e58139bd"] ;
513 -> 514 ;
515 [label="mse = 80.84\nsamples = 7\nvalue = 728.08", fillcolor="#e58139dc"] ;
513 -> 515 ;
516 [label="Monthly Debt <= 9143.18\nmse = 1003.46\nsamples = 186\nvalue = 689.17", fillcolor="#e58139a0"] ;
510 -> 516 ;
517 [label="mse = 762.07\nsamples = 4\nvalue = 649.45", fillcolor="#e5813963"] ;
516 -> 517 ;
518 [label="Current Credit Balance <= 292353.0\nmse = 950.72\nsamples = 182\nvalue = 690.67", fillcolor="#e58139a2"] ;
516 -> 518 ;
519 [label="Maximum Open Credit <= 301642.0\nmse = 876.68\nsamples = 167\nvalue = 692.59", fillcolor="#e58139a5"] ;
518 -> 519 ;
520 [label="mse = 957.75\nsamples = 90\nvalue = 686.16", fillcolor="#e581399b"] ;
519 -> 520 ;
521 [label="mse = 685.76\nsamples = 77\nvalue = 699.86", fillcolor="#e58139b0"] ;
519 -> 521 ;
522 [label="Years in current job_1 year <= 0.5\nmse = 1278.45\nsamples = 15\nvalue = 670.16", fillcolor="#e5813983"] ;
518 -> 522 ;
523 [label="mse = 764.81\nsamples = 13\nvalue = 678.77", fillcolor="#e5813990"] ;
522 -> 523 ;
524 [label="mse = 512.0\nsamples = 2\nvalue = 607.0", fillcolor="#e5813922"] ;
522 -> 524 ;
525 [label="Maximum Open Credit <= 387068.0\nmse = 1643.93\nsamples = 10\nvalue = 655.42", fillcolor="#e581396c"] ;
505 -> 525 ;
526 [label="mse = 680.35\nsamples = 7\nvalue = 680.25", fillcolor="#e5813992"] ;
525 -> 526 ;
527 [label="mse = 427.27\nsamples = 3\nvalue = 612.86", fillcolor="#e581392b"] ;
525 -> 527 ;
528 [label="Current Credit Balance <= 257488.0\nmse = 847.42\nsamples = 295\nvalue = 698.44", fillcolor="#e58139ae"] ;
504 -> 528 ;
529 [label="Purpose_Medical Bills <= 0.5\nmse = 449.73\nsamples = 71\nvalue = 715.01", fillcolor="#e58139c8"] ;
528 -> 529 ;
530 [label="Years in current job_6 years <= 0.5\nmse = 420.46\nsamples = 69\nvalue = 716.11", fillcolor="#e58139c9"] ;
529 -> 530 ;
531 [label="Number of Open Accounts <= 22.5\nmse = 316.27\nsamples = 63\nvalue = 717.51", fillcolor="#e58139cc"] ;
530 -> 531 ;
532 [label="Years in current job_4 years <= 0.5\nmse = 226.65\nsamples = 59\nvalue = 718.81", fillcolor="#e58139ce"] ;
531 -> 532 ;
533 [label="Purpose_Buy House <= 0.5\nmse = 169.4\nsamples = 58\nvalue = 719.89", fillcolor="#e58139cf"] ;
532 -> 533 ;
534 [label="mse = 152.21\nsamples = 57\nvalue = 720.52", fillcolor="#e58139d0"] ;
533 -> 534 ;
535 [label="mse = 0.0\nsamples = 1\nvalue = 688.0", fillcolor="#e581399e"] ;
533 -> 535 ;
536 [label="mse = 0.0\nsamples = 1\nvalue = 663.0", fillcolor="#e5813978"] ;
532 -> 536 ;
537 [label="mse = 1416.96\nsamples = 4\nvalue = 690.2", fillcolor="#e58139a2"] ;
531 -> 537 ;
538 [label="mse = 1544.41\nsamples = 6\nvalue = 694.14", fillcolor="#e58139a8"] ;
530 -> 538 ;
539 [label="mse = 229.69\nsamples = 2\nvalue = 682.75", fillcolor="#e5813996"] ;
529 -> 539 ;
540 [label="CurrentLoanAmount <= 525921.0\nmse = 856.83\nsamples = 224\nvalue = 692.63", fillcolor="#e58139a5"] ;
528 -> 540 ;
541 [label="Current Credit Balance <= 401185.0\nmse = 892.89\nsamples = 196\nvalue = 690.59", fillcolor="#e58139a2"] ;
540 -> 541 ;
542 [label="Monthly Debt <= 15967.41\nmse = 776.48\nsamples = 119\nvalue = 695.1", fillcolor="#e58139a9"] ;
541 -> 542 ;
543 [label="Purpose_other <= 0.5\nmse = 631.01\nsamples = 23\nvalue = 678.49", fillcolor="#e5813990"] ;
542 -> 543 ;
544 [label="Monthly Debt <= 15537.25\nmse = 489.77\nsamples = 21\nvalue = 683.27", fillcolor="#e5813997"] ;
543 -> 544 ;
545 [label="mse = 311.55\nsamples = 20\nvalue = 686.84", fillcolor="#e581399c"] ;
544 -> 545 ;
546 [label="mse = 0.0\nsamples = 1\nvalue = 628.0", fillcolor="#e5813942"] ;
544 -> 546 ;
547 [label="mse = 48.0\nsamples = 2\nvalue = 639.0", fillcolor="#e5813953"] ;
543 -> 547 ;
548 [label="Monthly Debt <= 25967.68\nmse = 728.77\nsamples = 96\nvalue = 699.12", fillcolor="#e58139af"] ;
542 -> 548 ;
549 [label="Maximum Open Credit <= 474738.0\nmse = 427.38\nsamples = 42\nvalue = 711.2", fillcolor="#e58139c2"] ;
548 -> 549 ;
550 [label="mse = 305.5\nsamples = 6\nvalue = 690.64", fillcolor="#e58139a2"] ;
549 -> 550 ;
551 [label="mse = 346.66\nsamples = 36\nvalue = 715.47", fillcolor="#e58139c8"] ;
549 -> 551 ;
552 [label="Years of Credit History <= 13.75\nmse = 764.94\nsamples = 54\nvalue = 690.43", fillcolor="#e58139a2"] ;
548 -> 552 ;
553 [label="mse = 580.54\nsamples = 7\nvalue = 664.62", fillcolor="#e581397a"] ;
552 -> 553 ;
554 [label="mse = 663.03\nsamples = 47\nvalue = 694.84", fillcolor="#e58139a9"] ;
552 -> 554 ;
555 [label="Maximum Open Credit <= 535480.0\nmse = 996.45\nsamples = 77\nvalue = 683.07", fillcolor="#e5813997"] ;
541 -> 555 ;
556 [label="mse = 779.86\nsamples = 5\nvalue = 636.88", fillcolor="#e5813950"] ;
555 -> 556 ;
557 [label="Monthly Debt <= 23082.34\nmse = 839.59\nsamples = 72\nvalue = 686.56", fillcolor="#e581399c"] ;
555 -> 557 ;
558 [label="Annual Income <= 2762828.0\nmse = 361.56\nsamples = 20\nvalue = 701.77", fillcolor="#e58139b3"] ;
557 -> 558 ;
559 [label="mse = 272.98\nsamples = 19\nvalue = 703.76", fillcolor="#e58139b6"] ;
558 -> 559 ;
560 [label="mse = 0.0\nsamples = 1\nvalue = 652.0", fillcolor="#e5813967"] ;
558 -> 560 ;
561 [label="Years in current job_8 years <= 0.5\nmse = 895.29\nsamples = 52\nvalue = 681.61", fillcolor="#e5813994"] ;
557 -> 561 ;
562 [label="mse = 869.44\nsamples = 50\nvalue = 680.1", fillcolor="#e5813992"] ;
561 -> 562 ;
563 [label="mse = 0.89\nsamples = 2\nvalue = 720.33", fillcolor="#e58139d0"] ;
561 -> 563 ;
564 [label="CurrentLoanAmount <= 539088.0\nmse = 330.49\nsamples = 28\nvalue = 707.73", fillcolor="#e58139bd"] ;
540 -> 564 ;
565 [label="Annual Income <= 1681965.5\nmse = 259.95\nsamples = 24\nvalue = 711.77", fillcolor="#e58139c3"] ;
564 -> 565 ;
566 [label="Maximum Open Credit <= 696388.0\nmse = 261.48\nsamples = 10\nvalue = 700.38", fillcolor="#e58139b1"] ;
565 -> 566 ;
567 [label="mse = 202.76\nsamples = 7\nvalue = 708.2", fillcolor="#e58139bd"] ;
566 -> 567 ;
568 [label="mse = 87.22\nsamples = 3\nvalue = 687.33", fillcolor="#e581399d"] ;
566 -> 568 ;
569 [label="Current Credit Balance <= 424944.5\nmse = 57.18\nsamples = 14\nvalue = 721.37", fillcolor="#e58139d1"] ;
565 -> 569 ;
570 [label="mse = 34.18\nsamples = 7\nvalue = 725.0", fillcolor="#e58139d7"] ;
569 -> 570 ;
571 [label="mse = 45.73\nsamples = 7\nvalue = 716.38", fillcolor="#e58139ca"] ;
569 -> 571 ;
572 [label="mse = 91.47\nsamples = 4\nvalue = 684.17", fillcolor="#e5813998"] ;
564 -> 572 ;
573 [label="mse = 1711.98\nsamples = 9\nvalue = 631.86", fillcolor="#e5813948"] ;
435 -> 573 ;
574 [label="Annual Income <= 1397716.0\nmse = 1178.16\nsamples = 1250\nvalue = 689.69", fillcolor="#e58139a1"] ;
2 -> 574 ;
575 [label="Annual Income <= 1378100.75\nmse = 973.09\nsamples = 595\nvalue = 697.39", fillcolor="#e58139ad"] ;
574 -> 575 ;
576 [label="CurrentLoanAmount <= 743688.0\nmse = 1124.67\nsamples = 429\nvalue = 690.95", fillcolor="#e58139a3"] ;
575 -> 576 ;
577 [label="CurrentLoanAmount <= 555544.0\nmse = 1102.39\nsamples = 187\nvalue = 681.21", fillcolor="#e5813994"] ;
576 -> 577 ;
578 [label="Monthly Debt <= 9598.23\nmse = 731.24\nsamples = 40\nvalue = 696.51", fillcolor="#e58139ab"] ;
577 -> 578 ;
579 [label="Number of Open Accounts <= 5.0\nmse = 324.62\nsamples = 10\nvalue = 714.82", fillcolor="#e58139c7"] ;
578 -> 579 ;
580 [label="mse = 39.2\nsamples = 4\nvalue = 691.0", fillcolor="#e58139a3"] ;
579 -> 580 ;
581 [label="mse = 108.52\nsamples = 6\nvalue = 724.75", fillcolor="#e58139d7"] ;
579 -> 581 ;
582 [label="Number of Open Accounts <= 10.5\nmse = 718.63\nsamples = 30\nvalue = 690.52", fillcolor="#e58139a2"] ;
578 -> 582 ;
583 [label="Annual Income <= 1245725.5\nmse = 931.32\nsamples = 12\nvalue = 671.21", fillcolor="#e5813984"] ;
582 -> 583 ;
584 [label="mse = 1081.89\nsamples = 8\nvalue = 659.33", fillcolor="#e5813972"] ;
583 -> 584 ;
585 [label="mse = 16.82\nsamples = 4\nvalue = 691.57", fillcolor="#e58139a4"] ;
583 -> 585 ;
586 [label="Home Ownership_Home Mortgage <= 0.5\nmse = 257.93\nsamples = 18\nvalue = 701.64", fillcolor="#e58139b3"] ;
582 -> 586 ;
587 [label="mse = 215.98\nsamples = 9\nvalue = 690.86", fillcolor="#e58139a3"] ;
586 -> 587 ;
588 [label="mse = 140.14\nsamples = 9\nvalue = 709.58", fillcolor="#e58139bf"] ;
586 -> 588 ;
589 [label="Annual Income <= 1358642.5\nmse = 1122.5\nsamples = 147\nvalue = 676.79", fillcolor="#e581398d"] ;
577 -> 589 ;
590 [label="Years of Credit History <= 8.6\nmse = 1024.46\nsamples = 140\nvalue = 678.9", fillcolor="#e5813990"] ;
589 -> 590 ;
591 [label="mse = 333.56\nsamples = 3\nvalue = 611.33", fillcolor="#e5813928"] ;
590 -> 591 ;
592 [label="Maximum Open Credit <= 762476.0\nmse = 972.45\nsamples = 137\nvalue = 679.79", fillcolor="#e5813992"] ;
590 -> 592 ;
593 [label="Current Credit Balance <= 332348.0\nmse = 952.41\nsamples = 126\nvalue = 678.05", fillcolor="#e581398f"] ;
592 -> 593 ;
594 [label="Tax Liens <= 0.5\nmse = 863.97\nsamples = 90\nvalue = 682.22", fillcolor="#e5813995"] ;
593 -> 594 ;
595 [label="CurrentLoanAmount <= 582791.0\nmse = 812.67\nsamples = 88\nvalue = 683.08", fillcolor="#e5813997"] ;
594 -> 595 ;
596 [label="Years of Credit History <= 38.5\nmse = 441.05\nsamples = 21\nvalue = 694.34", fillcolor="#e58139a8"] ;
595 -> 596 ;
597 [label="Years of Credit History <= 10.0\nmse = 304.47\nsamples = 20\nvalue = 697.13", fillcolor="#e58139ac"] ;
596 -> 597 ;
598 [label="mse = 0.0\nsamples = 1\nvalue = 731.0", fillcolor="#e58139e0"] ;
597 -> 598 ;
599 [label="mse = 255.56\nsamples = 19\nvalue = 695.3", fillcolor="#e58139a9"] ;
597 -> 599 ;
600 [label="mse = 0.0\nsamples = 1\nvalue = 640.0", fillcolor="#e5813954"] ;
596 -> 600 ;
601 [label="Current Credit Balance <= 31540.0\nmse = 883.86\nsamples = 67\nvalue = 679.07", fillcolor="#e5813991"] ;
595 -> 601 ;
602 [label="mse = 0.0\nsamples = 2\nvalue = 616.0", fillcolor="#e5813930"] ;
601 -> 602 ;
603 [label="CurrentLoanAmount <= 591426.0\nmse = 798.13\nsamples = 65\nvalue = 680.76", fillcolor="#e5813993"] ;
601 -> 603 ;
604 [label="mse = 799.29\nsamples = 10\nvalue = 660.9", fillcolor="#e5813975"] ;
603 -> 604 ;
605 [label="mse = 693.51\nsamples = 55\nvalue = 685.08", fillcolor="#e581399a"] ;
603 -> 605 ;
606 [label="mse = 289.0\nsamples = 2\nvalue = 615.0", fillcolor="#e581392e"] ;
594 -> 606 ;
607 [label="Years of Credit History <= 21.05\nmse = 1013.01\nsamples = 36\nvalue = 666.07", fillcolor="#e581397d"] ;
593 -> 607 ;
608 [label="Purpose_Home Improvements <= 0.5\nmse = 489.23\nsamples = 24\nvalue = 652.94", fillcolor="#e5813968"] ;
607 -> 608 ;
609 [label="Years of Credit History <= 16.65\nmse = 360.75\nsamples = 23\nvalue = 656.0", fillcolor="#e581396d"] ;
608 -> 609 ;
610 [label="Maximum Open Credit <= 691845.0\nmse = 303.4\nsamples = 11\nvalue = 666.07", fillcolor="#e581397d"] ;
609 -> 610 ;
611 [label="mse = 239.25\nsamples = 7\nvalue = 674.5", fillcolor="#e5813989"] ;
610 -> 611 ;
612 [label="mse = 4.96\nsamples = 4\nvalue = 649.2", fillcolor="#e5813963"] ;
610 -> 612 ;
613 [label="Home Ownership_Home Mortgage <= 0.5\nmse = 243.04\nsamples = 12\nvalue = 647.12", fillcolor="#e581395f"] ;
609 -> 613 ;
614 [label="mse = 177.16\nsamples = 7\nvalue = 638.2", fillcolor="#e5813952"] ;
613 -> 614 ;
615 [label="mse = 61.27\nsamples = 5\nvalue = 659.86", fillcolor="#e5813973"] ;
613 -> 615 ;
616 [label="mse = 0.0\nsamples = 1\nvalue = 604.0", fillcolor="#e581391d"] ;
608 -> 616 ;
617 [label="LoanStatus_Fully Paid <= 0.5\nmse = 1129.84\nsamples = 12\nvalue = 687.33", fillcolor="#e581399d"] ;
607 -> 617 ;
618 [label="mse = 291.23\nsamples = 5\nvalue = 660.62", fillcolor="#e5813974"] ;
617 -> 618 ;
619 [label="mse = 936.79\nsamples = 7\nvalue = 703.77", fillcolor="#e58139b6"] ;
617 -> 619 ;
620 [label="Annual Income <= 1153737.0\nmse = 529.49\nsamples = 11\nvalue = 706.29", fillcolor="#e58139ba"] ;
592 -> 620 ;
621 [label="mse = 121.0\nsamples = 2\nvalue = 667.0", fillcolor="#e581397e"] ;
620 -> 621 ;
622 [label="mse = 297.47\nsamples = 9\nvalue = 712.83", fillcolor="#e58139c4"] ;
620 -> 622 ;
623 [label="mse = 620.89\nsamples = 7\nvalue = 623.0", fillcolor="#e581393a"] ;
589 -> 623 ;
624 [label="Years of Credit History <= 7.5\nmse = 1009.21\nsamples = 242\nvalue = 698.59", fillcolor="#e58139ae"] ;
576 -> 624 ;
625 [label="mse = 574.12\nsamples = 4\nvalue = 651.14", fillcolor="#e5813966"] ;
624 -> 625 ;
626 [label="Years of Credit History <= 18.45\nmse = 975.44\nsamples = 238\nvalue = 699.46", fillcolor="#e58139b0"] ;
624 -> 626 ;
627 [label="Current Credit Balance <= 280601.5\nmse = 1027.58\nsamples = 162\nvalue = 695.72", fillcolor="#e58139aa"] ;
626 -> 627 ;
628 [label="Number of Credit Problems <= 0.5\nmse = 1023.0\nsamples = 119\nvalue = 700.16", fillcolor="#e58139b1"] ;
627 -> 628 ;
629 [label="Number of Open Accounts <= 16.5\nmse = 851.18\nsamples = 100\nvalue = 704.76", fillcolor="#e58139b8"] ;
628 -> 629 ;
630 [label="Maximum Open Credit <= 172865.0\nmse = 639.45\nsamples = 85\nvalue = 708.36", fillcolor="#e58139bd"] ;
629 -> 630 ;
631 [label="Years in current job_5 years <= 0.5\nmse = 605.74\nsamples = 14\nvalue = 692.6", fillcolor="#e58139a5"] ;
630 -> 631 ;
632 [label="Years of Credit History <= 16.55\nmse = 430.38\nsamples = 11\nvalue = 701.87", fillcolor="#e58139b4"] ;
631 -> 632 ;
633 [label="Home Ownership_Home Mortgage <= 0.5\nmse = 293.03\nsamples = 10\nvalue = 705.21", fillcolor="#e58139b9"] ;
632 -> 633 ;
634 [label="mse = 136.44\nsamples = 7\nvalue = 696.4", fillcolor="#e58139ab"] ;
633 -> 634 ;
635 [label="mse = 4.69\nsamples = 3\nvalue = 727.25", fillcolor="#e58139db"] ;
633 -> 635 ;
636 [label="mse = 0.0\nsamples = 1\nvalue = 655.0", fillcolor="#e581396c"] ;
632 -> 636 ;
637 [label="mse = 101.36\nsamples = 3\nvalue = 664.8", fillcolor="#e581397b"] ;
631 -> 637 ;
638 [label="Monthly Debt <= 1290.39\nmse = 594.16\nsamples = 71\nvalue = 711.12", fillcolor="#e58139c2"] ;
630 -> 638 ;
639 [label="mse = 0.0\nsamples = 1\nvalue = 657.0", fillcolor="#e581396f"] ;
638 -> 639 ;
640 [label="Maximum Open Credit <= 495044.0\nmse = 573.27\nsamples = 70\nvalue = 711.6", fillcolor="#e58139c2"] ;
638 -> 640 ;
641 [label="Current Credit Balance <= 101868.5\nmse = 554.42\nsamples = 52\nvalue = 708.34", fillcolor="#e58139bd"] ;
640 -> 641 ;
642 [label="mse = 273.63\nsamples = 14\nvalue = 720.67", fillcolor="#e58139d0"] ;
641 -> 642 ;
643 [label="mse = 581.08\nsamples = 38\nvalue = 702.29", fillcolor="#e58139b4"] ;
641 -> 643 ;
644 [label="Maximum Open Credit <= 671594.0\nmse = 520.63\nsamples = 18\nvalue = 720.23", fillcolor="#e58139d0"] ;
640 -> 644 ;
645 [label="mse = 69.79\nsamples = 12\nvalue = 730.59", fillcolor="#e58139e0"] ;
644 -> 645 ;
646 [label="mse = 718.1\nsamples = 6\nvalue = 694.89", fillcolor="#e58139a9"] ;
644 -> 646 ;
647 [label="Current Credit Balance <= 189705.5\nmse = 1532.33\nsamples = 15\nvalue = 686.23", fillcolor="#e581399c"] ;
629 -> 647 ;
648 [label="mse = 1635.94\nsamples = 8\nvalue = 669.75", fillcolor="#e5813982"] ;
647 -> 648 ;
649 [label="mse = 236.64\nsamples = 7\nvalue = 712.6", fillcolor="#e58139c4"] ;
647 -> 649 ;
650 [label="Number of Open Accounts <= 13.5\nmse = 1274.81\nsamples = 19\nvalue = 679.72", fillcolor="#e5813992"] ;
628 -> 650 ;
651 [label="Current Credit Balance <= 86849.0\nmse = 1118.19\nsamples = 15\nvalue = 670.25", fillcolor="#e5813983"] ;
650 -> 651 ;
652 [label="mse = 249.56\nsamples = 7\nvalue = 696.67", fillcolor="#e58139ac"] ;
651 -> 652 ;
653 [label="mse = 853.75\nsamples = 8\nvalue = 650.44", fillcolor="#e5813965"] ;
651 -> 653 ;
654 [label="mse = 409.86\nsamples = 4\nvalue = 712.88", fillcolor="#e58139c4"] ;
650 -> 654 ;
655 [label="Annual Income <= 933907.0\nmse = 830.52\nsamples = 43\nvalue = 683.29", fillcolor="#e5813997"] ;
627 -> 655 ;
656 [label="Years of Credit History <= 12.7\nmse = 512.06\nsamples = 13\nvalue = 702.78", fillcolor="#e58139b5"] ;
655 -> 656 ;
657 [label="mse = 225.61\nsamples = 7\nvalue = 715.3", fillcolor="#e58139c8"] ;
656 -> 657 ;
658 [label="mse = 429.11\nsamples = 6\nvalue = 687.12", fillcolor="#e581399d"] ;
656 -> 658 ;
659 [label="Monthly Debt <= 19161.69\nmse = 763.71\nsamples = 30\nvalue = 676.54", fillcolor="#e581398d"] ;
655 -> 659 ;
660 [label="Current Credit Balance <= 303867.0\nmse = 803.13\nsamples = 16\nvalue = 690.56", fillcolor="#e58139a2"] ;
659 -> 660 ;
661 [label="mse = 300.0\nsamples = 5\nvalue = 665.67", fillcolor="#e581397c"] ;
660 -> 661 ;
662 [label="Years of Credit History <= 13.95\nmse = 541.5\nsamples = 11\nvalue = 704.56", fillcolor="#e58139b8"] ;
660 -> 662 ;
663 [label="mse = 340.22\nsamples = 6\nvalue = 688.33", fillcolor="#e581399f"] ;
662 -> 663 ;
664 [label="mse = 26.24\nsamples = 5\nvalue = 725.43", fillcolor="#e58139d8"] ;
662 -> 664 ;
665 [label="Monthly Debt <= 24093.62\nmse = 376.62\nsamples = 14\nvalue = 663.56", fillcolor="#e5813979"] ;
659 -> 665 ;
666 [label="mse = 197.06\nsamples = 7\nvalue = 652.75", fillcolor="#e5813968"] ;
665 -> 666 ;
667 [label="mse = 220.93\nsamples = 7\nvalue = 679.27", fillcolor="#e5813991"] ;
665 -> 667 ;
668 [label="Maximum Open Credit <= 445995.0\nmse = 757.97\nsamples = 76\nvalue = 707.81", fillcolor="#e58139bd"] ;
626 -> 668 ;
669 [label="Purpose_Home Improvements <= 0.5\nmse = 942.88\nsamples = 37\nvalue = 697.06", fillcolor="#e58139ac"] ;
668 -> 669 ;
670 [label="Maximum Open Credit <= 322014.0\nmse = 754.53\nsamples = 36\nvalue = 700.78", fillcolor="#e58139b2"] ;
669 -> 670 ;
671 [label="Purpose_other <= 0.5\nmse = 614.3\nsamples = 20\nvalue = 711.36", fillcolor="#e58139c2"] ;
670 -> 671 ;
672 [label="Monthly Debt <= 27012.87\nmse = 452.29\nsamples = 19\nvalue = 713.93", fillcolor="#e58139c6"] ;
671 -> 672 ;
673 [label="Monthly Debt <= 4432.98\nmse = 321.43\nsamples = 18\nvalue = 716.27", fillcolor="#e58139ca"] ;
672 -> 673 ;
674 [label="mse = 0.0\nsamples = 1\nvalue = 668.0", fillcolor="#e5813980"] ;
673 -> 674 ;
675 [label="Maximum Open Credit <= 45683.0\nmse = 237.36\nsamples = 17\nvalue = 718.2", fillcolor="#e58139cd"] ;
673 -> 675 ;
676 [label="mse = 1.69\nsamples = 2\nvalue = 736.25", fillcolor="#e58139e8"] ;
675 -> 676 ;
677 [label="mse = 208.37\nsamples = 15\nvalue = 714.76", fillcolor="#e58139c7"] ;
675 -> 677 ;
678 [label="mse = 0.0\nsamples = 1\nvalue = 653.0", fillcolor="#e5813968"] ;
672 -> 678 ;
679 [label="mse = 0.0\nsamples = 1\nvalue = 642.0", fillcolor="#e5813958"] ;
671 -> 679 ;
680 [label="Annual Income <= 1243892.0\nmse = 609.4\nsamples = 16\nvalue = 687.32", fillcolor="#e581399d"] ;
670 -> 680 ;
681 [label="Current Credit Balance <= 205057.5\nmse = 489.36\nsamples = 11\nvalue = 696.38", fillcolor="#e58139ab"] ;
680 -> 681 ;
682 [label="mse = 105.47\nsamples = 4\nvalue = 718.83", fillcolor="#e58139ce"] ;
681 -> 682 ;
683 [label="mse = 235.49\nsamples = 7\nvalue = 682.9", fillcolor="#e5813996"] ;
681 -> 683 ;
684 [label="mse = 127.47\nsamples = 5\nvalue = 663.17", fillcolor="#e5813978"] ;
680 -> 684 ;
685 [label="mse = 0.0\nsamples = 1\nvalue = 635.0", fillcolor="#e581394d"] ;
669 -> 685 ;
686 [label="Number of Open Accounts <= 13.5\nmse = 442.16\nsamples = 39\nvalue = 716.44", fillcolor="#e58139ca"] ;
668 -> 686 ;
687 [label="Annual Income <= 1104441.5\nmse = 421.77\nsamples = 31\nvalue = 721.9", fillcolor="#e58139d2"] ;
686 -> 687 ;
688 [label="Current Credit Balance <= 299155.0\nmse = 355.82\nsamples = 18\nvalue = 713.43", fillcolor="#e58139c5"] ;
687 -> 688 ;
689 [label="mse = 30.96\nsamples = 9\nvalue = 724.43", fillcolor="#e58139d6"] ;
688 -> 689 ;
690 [label="mse = 438.67\nsamples = 9\nvalue = 702.43", fillcolor="#e58139b4"] ;
688 -> 690 ;
691 [label="Number of Open Accounts <= 11.5\nmse = 286.54\nsamples = 13\nvalue = 733.19", fillcolor="#e58139e4"] ;
687 -> 691 ;
692 [label="Current Credit Balance <= 538146.5\nmse = 104.29\nsamples = 12\nvalue = 736.25", fillcolor="#e58139e8"] ;
691 -> 692 ;
693 [label="Monthly Debt <= 17961.93\nmse = 15.51\nsamples = 11\nvalue = 738.42", fillcolor="#e58139ec"] ;
692 -> 693 ;
694 [label="mse = 10.89\nsamples = 8\nvalue = 736.33", fillcolor="#e58139e8"] ;
693 -> 694 ;
695 [label="mse = 3.14\nsamples = 3\nvalue = 742.0", fillcolor="#e58139f1"] ;
693 -> 695 ;
696 [label="mse = 0.0\nsamples = 1\nvalue = 695.0", fillcolor="#e58139a9"] ;
692 -> 696 ;
697 [label="mse = 0.0\nsamples = 1\nvalue = 672.0", fillcolor="#e5813986"] ;
691 -> 697 ;
698 [label="mse = 167.5\nsamples = 8\nvalue = 700.71", fillcolor="#e58139b2"] ;
686 -> 698 ;
699 [label="Annual Income <= 1381452.0\nmse = 165.13\nsamples = 166\nvalue = 714.54", fillcolor="#e58139c7"] ;
575 -> 699 ;
700 [label="Annual Income <= 1379088.75\nmse = 1.37\nsamples = 149\nvalue = 716.48", fillcolor="#e58139ca"] ;
699 -> 700 ;
701 [label="mse = 0.0\nsamples = 146\nvalue = 716.28", fillcolor="#e58139ca"] ;
700 -> 701 ;
702 [label="mse = 0.12\nsamples = 3\nvalue = 723.14", fillcolor="#e58139d4"] ;
700 -> 702 ;
703 [label="Years of Credit History <= 19.45\nmse = 1209.18\nsamples = 17\nvalue = 698.83", fillcolor="#e58139af"] ;
699 -> 703 ;
704 [label="CurrentLoanAmount <= 577126.0\nmse = 780.06\nsamples = 10\nvalue = 669.69", fillcolor="#e5813982"] ;
703 -> 704 ;
705 [label="mse = 0.0\nsamples = 2\nvalue = 625.0", fillcolor="#e581393d"] ;
704 -> 705 ;
706 [label="mse = 492.69\nsamples = 8\nvalue = 677.82", fillcolor="#e581398f"] ;
704 -> 706 ;
707 [label="mse = 307.75\nsamples = 7\nvalue = 722.5", fillcolor="#e58139d3"] ;
703 -> 707 ;
708 [label="CurrentLoanAmount <= 789063.0\nmse = 1263.34\nsamples = 655\nvalue = 682.38", fillcolor="#e5813996"] ;
574 -> 708 ;
709 [label="Purpose_Debt Consolidation <= 0.5\nmse = 1199.67\nsamples = 498\nvalue = 678.48", fillcolor="#e5813990"] ;
708 -> 709 ;
710 [label="Current Credit Balance <= 76826.5\nmse = 1275.94\nsamples = 102\nvalue = 669.17", fillcolor="#e5813981"] ;
709 -> 710 ;
711 [label="CurrentLoanAmount <= 662112.0\nmse = 1190.43\nsamples = 23\nvalue = 645.26", fillcolor="#e581395d"] ;
710 -> 711 ;
712 [label="mse = 135.87\nsamples = 8\nvalue = 620.23", fillcolor="#e5813936"] ;
711 -> 712 ;
713 [label="Years of Credit History <= 21.3\nmse = 1215.13\nsamples = 15\nvalue = 660.76", fillcolor="#e5813974"] ;
711 -> 713 ;
714 [label="Monthly Debt <= 13712.49\nmse = 512.25\nsamples = 10\nvalue = 679.5", fillcolor="#e5813991"] ;
713 -> 714 ;
715 [label="mse = 514.89\nsamples = 5\nvalue = 697.67", fillcolor="#e58139ad"] ;
714 -> 715 ;
716 [label="mse = 77.11\nsamples = 5\nvalue = 665.88", fillcolor="#e581397c"] ;
714 -> 716 ;
717 [label="mse = 514.2\nsamples = 5\nvalue = 623.29", fillcolor="#e581393b"] ;
713 -> 717 ;
718 [label="Years in current job_2 years <= 0.5\nmse = 1097.91\nsamples = 79\nvalue = 675.78", fillcolor="#e581398b"] ;
710 -> 718 ;
719 [label="Annual Income <= 3118688.5\nmse = 1089.74\nsamples = 69\nvalue = 679.66", fillcolor="#e5813991"] ;
718 -> 719 ;
720 [label="Number of Open Accounts <= 10.5\nmse = 1144.59\nsamples = 58\nvalue = 674.18", fillcolor="#e5813989"] ;
719 -> 720 ;
721 [label="CurrentLoanAmount <= 671594.0\nmse = 1116.65\nsamples = 40\nvalue = 682.44", fillcolor="#e5813996"] ;
720 -> 721 ;
722 [label="Years in current job_9 years <= 0.5\nmse = 835.7\nsamples = 30\nvalue = 688.36", fillcolor="#e581399f"] ;
721 -> 722 ;
723 [label="Years of Credit History <= 22.4\nmse = 699.77\nsamples = 28\nvalue = 692.22", fillcolor="#e58139a5"] ;
722 -> 723 ;
724 [label="Annual Income <= 2623767.0\nmse = 595.35\nsamples = 26\nvalue = 688.6", fillcolor="#e581399f"] ;
723 -> 724 ;
725 [label="CurrentLoanAmount <= 555698.0\nmse = 420.76\nsamples = 24\nvalue = 692.38", fillcolor="#e58139a5"] ;
724 -> 725 ;
726 [label="mse = 48.06\nsamples = 8\nvalue = 672.71", fillcolor="#e5813987"] ;
725 -> 726 ;
727 [label="mse = 317.03\nsamples = 16\nvalue = 702.21", fillcolor="#e58139b4"] ;
725 -> 727 ;
728 [label="mse = 37.56\nsamples = 2\nvalue = 635.67", fillcolor="#e581394e"] ;
724 -> 728 ;
729 [label="mse = 64.0\nsamples = 2\nvalue = 733.0", fillcolor="#e58139e3"] ;
723 -> 729 ;
730 [label="mse = 75.0\nsamples = 2\nvalue = 641.0", fillcolor="#e5813956"] ;
722 -> 730 ;
731 [label="Years of Credit History <= 22.85\nmse = 1487.54\nsamples = 10\nvalue = 653.91", fillcolor="#e581396a"] ;
721 -> 731 ;
732 [label="mse = 896.25\nsamples = 7\nvalue = 637.0", fillcolor="#e5813950"] ;
731 -> 732 ;
733 [label="mse = 268.67\nsamples = 3\nvalue = 699.0", fillcolor="#e58139af"] ;
731 -> 733 ;
734 [label="Annual Income <= 1512856.0\nmse = 505.3\nsamples = 18\nvalue = 651.22", fillcolor="#e5813966"] ;
720 -> 734 ;
735 [label="mse = 48.0\nsamples = 3\nvalue = 627.0", fillcolor="#e5813941"] ;
734 -> 735 ;
736 [label="Current Credit Balance <= 204383.0\nmse = 452.11\nsamples = 15\nvalue = 656.32", fillcolor="#e581396e"] ;
734 -> 736 ;
737 [label="mse = 169.61\nsamples = 7\nvalue = 642.12", fillcolor="#e5813958"] ;
736 -> 737 ;
738 [label="mse = 404.6\nsamples = 8\nvalue = 666.64", fillcolor="#e581397d"] ;
736 -> 738 ;
739 [label="Number of Open Accounts <= 13.0\nmse = 224.22\nsamples = 11\nvalue = 702.33", fillcolor="#e58139b4"] ;
719 -> 739 ;
740 [label="mse = 160.64\nsamples = 8\nvalue = 697.94", fillcolor="#e58139ad"] ;
739 -> 740 ;
741 [label="mse = 64.0\nsamples = 3\nvalue = 721.0", fillcolor="#e58139d1"] ;
739 -> 741 ;
742 [label="Home Ownership_Home Mortgage <= 0.5\nmse = 269.32\nsamples = 10\nvalue = 647.87", fillcolor="#e5813961"] ;
718 -> 742 ;
743 [label="mse = 130.67\nsamples = 4\nvalue = 632.0", fillcolor="#e5813948"] ;
742 -> 743 ;
744 [label="mse = 82.02\nsamples = 6\nvalue = 658.44", fillcolor="#e5813971"] ;
742 -> 744 ;
745 [label="Monthly Debt <= 7384.06\nmse = 1152.84\nsamples = 396\nvalue = 680.84", fillcolor="#e5813993"] ;
709 -> 745 ;
746 [label="mse = 114.56\nsamples = 9\nvalue = 718.8", fillcolor="#e58139ce"] ;
745 -> 746 ;
747 [label="Years of Credit History <= 26.65\nmse = 1141.97\nsamples = 387\nvalue = 679.9", fillcolor="#e5813992"] ;
745 -> 747 ;
748 [label="Years of Credit History <= 25.75\nmse = 1166.61\nsamples = 341\nvalue = 678.04", fillcolor="#e581398f"] ;
747 -> 748 ;
749 [label="CurrentLoanAmount <= 741246.0\nmse = 1123.13\nsamples = 333\nvalue = 679.13", fillcolor="#e5813991"] ;
748 -> 749 ;
750 [label="Annual Income <= 1709373.0\nmse = 1141.08\nsamples = 230\nvalue = 683.78", fillcolor="#e5813998"] ;
749 -> 750 ;
751 [label="Maximum Open Credit <= 780340.0\nmse = 1032.22\nsamples = 86\nvalue = 675.25", fillcolor="#e581398b"] ;
750 -> 751 ;
752 [label="Home Ownership_Home Mortgage <= 0.5\nmse = 946.76\nsamples = 84\nvalue = 677.15", fillcolor="#e581398e"] ;
751 -> 752 ;
753 [label="Number of Open Accounts <= 8.0\nmse = 1036.88\nsamples = 29\nvalue = 664.0", fillcolor="#e5813979"] ;
752 -> 753 ;
754 [label="Annual Income <= 1500601.0\nmse = 672.2\nsamples = 10\nvalue = 687.27", fillcolor="#e581399d"] ;
753 -> 754 ;
755 [label="mse = 505.58\nsamples = 6\nvalue = 672.44", fillcolor="#e5813986"] ;
754 -> 755 ;
756 [label="mse = 98.25\nsamples = 4\nvalue = 709.5", fillcolor="#e58139bf"] ;
754 -> 756 ;
757 [label="Years of Credit History <= 11.7\nmse = 786.89\nsamples = 19\nvalue = 651.54", fillcolor="#e5813966"] ;
753 -> 757 ;
758 [label="mse = 288.0\nsamples = 2\nvalue = 700.0", fillcolor="#e58139b1"] ;
757 -> 758 ;
759 [label="mse = 531.08\nsamples = 17\nvalue = 645.72", fillcolor="#e581395d"] ;
757 -> 759 ;
760 [label="CurrentLoanAmount <= 542333.0\nmse = 766.8\nsamples = 55\nvalue = 683.88", fillcolor="#e5813998"] ;
752 -> 760 ;
761 [label="mse = 0.0\nsamples = 1\nvalue = 596.0", fillcolor="#e5813911"] ;
760 -> 761 ;
762 [label="Years of Credit History <= 11.65\nmse = 681.86\nsamples = 54\nvalue = 684.94", fillcolor="#e581399a"] ;
760 -> 762 ;
763 [label="mse = 430.06\nsamples = 10\nvalue = 664.75", fillcolor="#e581397b"] ;
762 -> 763 ;
764 [label="mse = 621.41\nsamples = 44\nvalue = 689.76", fillcolor="#e58139a1"] ;
762 -> 764 ;
765 [label="mse = 1.0\nsamples = 2\nvalue = 615.0", fillcolor="#e581392e"] ;
751 -> 765 ;
766 [label="Number of Open Accounts <= 9.5\nmse = 1137.88\nsamples = 144\nvalue = 688.68", fillcolor="#e581399f"] ;
750 -> 766 ;
767 [label="Number of Open Accounts <= 7.5\nmse = 1475.73\nsamples = 46\nvalue = 674.67", fillcolor="#e581398a"] ;
766 -> 767 ;
768 [label="Years in current job_1 year <= 0.5\nmse = 877.84\nsamples = 21\nvalue = 691.31", fillcolor="#e58139a3"] ;
767 -> 768 ;
769 [label="Years of Credit History <= 24.2\nmse = 773.83\nsamples = 20\nvalue = 695.59", fillcolor="#e58139aa"] ;
768 -> 769 ;
770 [label="mse = 719.72\nsamples = 18\nvalue = 691.77", fillcolor="#e58139a4"] ;
769 -> 770 ;
771 [label="mse = 22.22\nsamples = 2\nvalue = 728.67", fillcolor="#e58139dd"] ;
769 -> 771 ;
772 [label="mse = 0.0\nsamples = 1\nvalue = 650.0", fillcolor="#e5813964"] ;
768 -> 772 ;
773 [label="Maximum Open Credit <= 294745.0\nmse = 1549.65\nsamples = 25\nvalue = 660.66", fillcolor="#e5813974"] ;
767 -> 773 ;
774 [label="mse = 1354.58\nsamples = 7\nvalue = 634.92", fillcolor="#e581394d"] ;
773 -> 774 ;
775 [label="Years of Credit History <= 22.6\nmse = 1192.71\nsamples = 18\nvalue = 672.54", fillcolor="#e5813986"] ;
773 -> 775 ;
776 [label="mse = 770.43\nsamples = 17\nvalue = 682.45", fillcolor="#e5813996"] ;
775 -> 776 ;
777 [label="mse = 0.0\nsamples = 1\nvalue = 618.0", fillcolor="#e5813933"] ;
775 -> 777 ;
778 [label="Monthly Debt <= 52799.95\nmse = 862.81\nsamples = 98\nvalue = 694.88", fillcolor="#e58139a9"] ;
766 -> 778 ;
779 [label="CurrentLoanAmount <= 635426.0\nmse = 811.98\nsamples = 94\nvalue = 696.28", fillcolor="#e58139ab"] ;
778 -> 779 ;
780 [label="CurrentLoanAmount <= 558305.0\nmse = 416.85\nsamples = 48\nvalue = 702.67", fillcolor="#e58139b5"] ;
779 -> 780 ;
781 [label="mse = 482.72\nsamples = 22\nvalue = 692.53", fillcolor="#e58139a5"] ;
780 -> 781 ;
782 [label="mse = 230.67\nsamples = 26\nvalue = 710.33", fillcolor="#e58139c1"] ;
780 -> 782 ;
783 [label="Number of Open Accounts <= 17.5\nmse = 1143.68\nsamples = 46\nvalue = 689.46", fillcolor="#e58139a0"] ;
779 -> 783 ;
784 [label="mse = 801.1\nsamples = 38\nvalue = 695.73", fillcolor="#e58139aa"] ;
783 -> 784 ;
785 [label="mse = 1662.58\nsamples = 8\nvalue = 657.08", fillcolor="#e581396f"] ;
783 -> 785 ;
786 [label="mse = 519.6\nsamples = 4\nvalue = 652.0", fillcolor="#e5813967"] ;
778 -> 786 ;
787 [label="CurrentLoanAmount <= 754325.0\nmse = 936.55\nsamples = 103\nvalue = 669.08", fillcolor="#e5813981"] ;
749 -> 787 ;
788 [label="Maximum Open Credit <= 364903.0\nmse = 1224.76\nsamples = 11\nvalue = 642.28", fillcolor="#e5813958"] ;
787 -> 788 ;
789 [label="mse = 346.22\nsamples = 4\nvalue = 618.67", fillcolor="#e5813934"] ;
788 -> 789 ;
790 [label="mse = 988.32\nsamples = 7\nvalue = 665.89", fillcolor="#e581397c"] ;
788 -> 790 ;
791 [label="Current Credit Balance <= 134966.5\nmse = 803.52\nsamples = 92\nvalue = 672.34", fillcolor="#e5813986"] ;
787 -> 791 ;
792 [label="mse = 675.96\nsamples = 8\nvalue = 703.33", fillcolor="#e58139b6"] ;
791 -> 792 ;
793 [label="Years of Credit History <= 15.65\nmse = 697.34\nsamples = 84\nvalue = 668.84", fillcolor="#e5813981"] ;
791 -> 793 ;
794 [label="Monthly Debt <= 21704.94\nmse = 801.3\nsamples = 27\nvalue = 657.93", fillcolor="#e5813970"] ;
793 -> 794 ;
795 [label="mse = 273.17\nsamples = 7\nvalue = 680.0", fillcolor="#e5813992"] ;
794 -> 795 ;
796 [label="Years of Credit History <= 13.85\nmse = 739.76\nsamples = 20\nvalue = 649.1", fillcolor="#e5813962"] ;
794 -> 796 ;
797 [label="mse = 625.67\nsamples = 9\nvalue = 665.15", fillcolor="#e581397b"] ;
796 -> 797 ;
798 [label="mse = 479.2\nsamples = 11\nvalue = 636.82", fillcolor="#e5813950"] ;
796 -> 798 ;
799 [label="Number of Open Accounts <= 14.5\nmse = 569.01\nsamples = 57\nvalue = 673.88", fillcolor="#e5813989"] ;
793 -> 799 ;
800 [label="Home Ownership_Home Mortgage <= 0.5\nmse = 431.58\nsamples = 38\nvalue = 679.1", fillcolor="#e5813991"] ;
799 -> 800 ;
801 [label="mse = 364.04\nsamples = 13\nvalue = 666.6", fillcolor="#e581397d"] ;
800 -> 801 ;
802 [label="mse = 341.53\nsamples = 25\nvalue = 685.68", fillcolor="#e581399b"] ;
800 -> 802 ;
803 [label="Maximum Open Credit <= 430001.0\nmse = 678.27\nsamples = 19\nvalue = 664.7", fillcolor="#e581397a"] ;
799 -> 803 ;
804 [label="mse = 342.25\nsamples = 2\nvalue = 614.5", fillcolor="#e581392d"] ;
803 -> 804 ;
805 [label="mse = 329.13\nsamples = 17\nvalue = 671.62", fillcolor="#e5813985"] ;
803 -> 805 ;
806 [label="mse = 1345.9\nsamples = 8\nvalue = 644.47", fillcolor="#e581395b"] ;
748 -> 806 ;
807 [label="Home Ownership_Own Home <= 0.5\nmse = 644.67\nsamples = 46\nvalue = 695.89", fillcolor="#e58139aa"] ;
747 -> 807 ;
808 [label="CurrentLoanAmount <= 779702.0\nmse = 578.08\nsamples = 44\nvalue = 697.56", fillcolor="#e58139ad"] ;
807 -> 808 ;
809 [label="CurrentLoanAmount <= 738650.0\nmse = 548.42\nsamples = 41\nvalue = 695.16", fillcolor="#e58139a9"] ;
808 -> 809 ;
810 [label="Annual Income <= 3954280.0\nmse = 459.61\nsamples = 29\nvalue = 701.54", fillcolor="#e58139b3"] ;
809 -> 810 ;
811 [label="Number of Open Accounts <= 11.5\nmse = 386.23\nsamples = 27\nvalue = 699.34", fillcolor="#e58139b0"] ;
810 -> 811 ;
812 [label="Number of Open Accounts <= 10.0\nmse = 457.4\nsamples = 13\nvalue = 692.22", fillcolor="#e58139a5"] ;
811 -> 812 ;
813 [label="Monthly Debt <= 18369.2\nmse = 235.66\nsamples = 10\nvalue = 698.93", fillcolor="#e58139af"] ;
812 -> 813 ;
814 [label="mse = 125.14\nsamples = 4\nvalue = 710.83", fillcolor="#e58139c1"] ;
813 -> 814 ;
815 [label="mse = 152.0\nsamples = 6\nvalue = 691.0", fillcolor="#e58139a3"] ;
813 -> 815 ;
816 [label="mse = 214.89\nsamples = 3\nvalue = 658.67", fillcolor="#e5813971"] ;
812 -> 816 ;
817 [label="Home Ownership_Home Mortgage <= 0.5\nmse = 235.49\nsamples = 14\nvalue = 705.75", fillcolor="#e58139b9"] ;
811 -> 817 ;
818 [label="mse = 68.98\nsamples = 5\nvalue = 689.62", fillcolor="#e58139a1"] ;
817 -> 818 ;
819 [label="mse = 57.58\nsamples = 9\nvalue = 716.5", fillcolor="#e58139ca"] ;
817 -> 819 ;
820 [label="mse = 555.56\nsamples = 2\nvalue = 729.33", fillcolor="#e58139de"] ;
810 -> 820 ;
821 [label="CurrentLoanAmount <= 756063.0\nmse = 376.33\nsamples = 12\nvalue = 677.73", fillcolor="#e581398e"] ;
809 -> 821 ;
822 [label="mse = 70.22\nsamples = 3\nvalue = 652.67", fillcolor="#e5813968"] ;
821 -> 822 ;
823 [label="mse = 256.5\nsamples = 9\nvalue = 684.0", fillcolor="#e5813998"] ;
821 -> 823 ;
824 [label="mse = 125.44\nsamples = 3\nvalue = 724.4", fillcolor="#e58139d6"] ;
808 -> 824 ;
825 [label="mse = 1.0\nsamples = 2\nvalue = 645.0", fillcolor="#e581395c"] ;
807 -> 825 ;
826 [label="Monthly Debt <= 33693.84\nmse = 1258.32\nsamples = 157\nvalue = 695.21", fillcolor="#e58139a9"] ;
708 -> 826 ;
827 [label="Monthly Debt <= 14370.37\nmse = 1123.29\nsamples = 133\nvalue = 699.49", fillcolor="#e58139b0"] ;
826 -> 827 ;
828 [label="Annual Income <= 1545080.0\nmse = 1583.01\nsamples = 29\nvalue = 683.82", fillcolor="#e5813998"] ;
827 -> 828 ;
829 [label="mse = 910.21\nsamples = 9\nvalue = 712.69", fillcolor="#e58139c4"] ;
828 -> 829 ;
830 [label="Annual Income <= 1612216.5\nmse = 1368.92\nsamples = 20\nvalue = 671.71", fillcolor="#e5813985"] ;
828 -> 830 ;
831 [label="mse = 518.0\nsamples = 3\nvalue = 620.0", fillcolor="#e5813936"] ;
830 -> 831 ;
832 [label="Years of Credit History <= 17.85\nmse = 777.39\nsamples = 17\nvalue = 684.12", fillcolor="#e5813998"] ;
830 -> 832 ;
833 [label="Monthly Debt <= 13065.25\nmse = 573.61\nsamples = 10\nvalue = 700.08", fillcolor="#e58139b1"] ;
832 -> 833 ;
834 [label="mse = 411.6\nsamples = 8\nvalue = 706.18", fillcolor="#e58139ba"] ;
833 -> 834 ;
835 [label="mse = 132.25\nsamples = 2\nvalue = 666.5", fillcolor="#e581397d"] ;
833 -> 835 ;
836 [label="mse = 423.47\nsamples = 7\nvalue = 666.83", fillcolor="#e581397e"] ;
832 -> 836 ;
837 [label="Years in current job_1 year <= 0.5\nmse = 896.88\nsamples = 104\nvalue = 704.06", fillcolor="#e58139b7"] ;
827 -> 837 ;
838 [label="Current Credit Balance <= 253422.0\nmse = 746.92\nsamples = 97\nvalue = 706.67", fillcolor="#e58139bb"] ;
837 -> 838 ;
839 [label="Number of Credit Problems <= 0.5\nmse = 568.91\nsamples = 48\nvalue = 714.74", fillcolor="#e58139c7"] ;
838 -> 839 ;
840 [label="Years in current job_4 years <= 0.5\nmse = 398.97\nsamples = 43\nvalue = 718.57", fillcolor="#e58139cd"] ;
839 -> 840 ;
841 [label="Current Credit Balance <= 64258.0\nmse = 358.28\nsamples = 42\nvalue = 720.31", fillcolor="#e58139d0"] ;
840 -> 841 ;
842 [label="mse = 36.2\nsamples = 6\nvalue = 739.29", fillcolor="#e58139ed"] ;
841 -> 842 ;
843 [label="Maximum Open Credit <= 449746.0\nmse = 346.29\nsamples = 36\nvalue = 717.71", fillcolor="#e58139cc"] ;
841 -> 843 ;
844 [label="Monthly Debt <= 22752.79\nmse = 485.64\nsamples = 24\nvalue = 712.9", fillcolor="#e58139c4"] ;
843 -> 844 ;
845 [label="Maximum Open Credit <= 164450.0\nmse = 331.85\nsamples = 16\nvalue = 721.21", fillcolor="#e58139d1"] ;
844 -> 845 ;
846 [label="mse = 2.0\nsamples = 2\nvalue = 688.0", fillcolor="#e581399e"] ;
845 -> 846 ;
847 [label="mse = 148.12\nsamples = 14\nvalue = 727.44", fillcolor="#e58139db"] ;
845 -> 847 ;
848 [label="mse = 446.85\nsamples = 8\nvalue = 699.75", fillcolor="#e58139b0"] ;
844 -> 848 ;
849 [label="Current Credit Balance <= 91570.5\nmse = 39.13\nsamples = 12\nvalue = 725.15", fillcolor="#e58139d7"] ;
843 -> 849 ;
850 [label="mse = 1.0\nsamples = 2\nvalue = 739.0", fillcolor="#e58139ed"] ;
849 -> 850 ;
851 [label="Monthly Debt <= 27225.77\nmse = 19.68\nsamples = 10\nvalue = 723.61", fillcolor="#e58139d5"] ;
849 -> 851 ;
852 [label="mse = 13.63\nsamples = 7\nvalue = 725.46", fillcolor="#e58139d8"] ;
851 -> 852 ;
853 [label="mse = 3.36\nsamples = 3\nvalue = 718.8", fillcolor="#e58139ce"] ;
851 -> 853 ;
854 [label="mse = 0.0\nsamples = 1\nvalue = 685.0", fillcolor="#e581399a"] ;
840 -> 854 ;
855 [label="mse = 947.06\nsamples = 5\nvalue = 688.78", fillcolor="#e581399f"] ;
839 -> 855 ;
856 [label="Monthly Debt <= 25205.78\nmse = 794.64\nsamples = 49\nvalue = 698.6", fillcolor="#e58139af"] ;
838 -> 856 ;
857 [label="Maximum Open Credit <= 478302.0\nmse = 824.58\nsamples = 26\nvalue = 709.06", fillcolor="#e58139bf"] ;
856 -> 857 ;
858 [label="mse = 156.22\nsamples = 3\nvalue = 658.67", fillcolor="#e5813971"] ;
857 -> 858 ;
859 [label="Years in current job_2 years <= 0.5\nmse = 619.74\nsamples = 23\nvalue = 713.94", fillcolor="#e58139c6"] ;
857 -> 859 ;
860 [label="Years in current job_9 years <= 0.5\nmse = 441.78\nsamples = 22\nvalue = 716.47", fillcolor="#e58139ca"] ;
859 -> 860 ;
861 [label="Current Credit Balance <= 284458.5\nmse = 335.32\nsamples = 21\nvalue = 719.5", fillcolor="#e58139cf"] ;
860 -> 861 ;
862 [label="mse = 44.2\nsamples = 5\nvalue = 736.71", fillcolor="#e58139e9"] ;
861 -> 862 ;
863 [label="Years of Credit History <= 22.25\nmse = 300.66\nsamples = 16\nvalue = 713.76", fillcolor="#e58139c6"] ;
861 -> 863 ;
864 [label="mse = 288.33\nsamples = 12\nvalue = 707.73", fillcolor="#e58139bd"] ;
863 -> 864 ;
865 [label="mse = 13.47\nsamples = 4\nvalue = 728.83", fillcolor="#e58139dd"] ;
863 -> 865 ;
866 [label="mse = 0.0\nsamples = 1\nvalue = 674.0", fillcolor="#e5813989"] ;
860 -> 866 ;
867 [label="mse = 0.0\nsamples = 1\nvalue = 638.0", fillcolor="#e5813951"] ;
859 -> 867 ;
868 [label="Years of Credit History <= 12.1\nmse = 565.48\nsamples = 23\nvalue = 688.72", fillcolor="#e581399f"] ;
856 -> 868 ;
869 [label="mse = 0.0\nsamples = 1\nvalue = 640.0", fillcolor="#e5813954"] ;
868 -> 869 ;
870 [label="Annual Income <= 3983331.0\nmse = 450.89\nsamples = 22\nvalue = 691.59", fillcolor="#e58139a4"] ;
868 -> 870 ;
871 [label="Current Credit Balance <= 516581.5\nmse = 407.27\nsamples = 20\nvalue = 688.17", fillcolor="#e581399e"] ;
870 -> 871 ;
872 [label="Maximum Open Credit <= 643610.0\nmse = 327.93\nsamples = 19\nvalue = 689.93", fillcolor="#e58139a1"] ;
871 -> 872 ;
873 [label="Number of Credit Problems <= 2.0\nmse = 303.94\nsamples = 12\nvalue = 684.33", fillcolor="#e5813999"] ;
872 -> 873 ;
874 [label="mse = 219.26\nsamples = 11\nvalue = 681.0", fillcolor="#e5813993"] ;
873 -> 874 ;
875 [label="mse = 0.0\nsamples = 1\nvalue = 716.0", fillcolor="#e58139c9"] ;
873 -> 875 ;
876 [label="mse = 92.73\nsamples = 7\nvalue = 704.62", fillcolor="#e58139b8"] ;
872 -> 876 ;
877 [label="mse = 0.0\nsamples = 1\nvalue = 637.0", fillcolor="#e5813950"] ;
871 -> 877 ;
878 [label="mse = 31.69\nsamples = 2\nvalue = 717.25", fillcolor="#e58139cb"] ;
870 -> 878 ;
879 [label="mse = 1613.6\nsamples = 7\nvalue = 670.82", fillcolor="#e5813984"] ;
837 -> 879 ;
880 [label="Annual Income <= 1444912.0\nmse = 1398.95\nsamples = 24\nvalue = 674.85", fillcolor="#e581398a"] ;
826 -> 880 ;
881 [label="mse = 361.0\nsamples = 2\nvalue = 607.0", fillcolor="#e5813922"] ;
880 -> 881 ;
882 [label="Current Credit Balance <= 248349.0\nmse = 1203.97\nsamples = 22\nvalue = 678.33", fillcolor="#e581398f"] ;
880 -> 882 ;
883 [label="mse = 824.19\nsamples = 7\nvalue = 663.9", fillcolor="#e5813979"] ;
882 -> 883 ;
884 [label="Maximum Open Credit <= 747780.0\nmse = 1153.62\nsamples = 15\nvalue = 693.53", fillcolor="#e58139a7"] ;
882 -> 884 ;
885 [label="Current Credit Balance <= 494446.5\nmse = 1076.21\nsamples = 13\nvalue = 700.31", fillcolor="#e58139b1"] ;
884 -> 885 ;
886 [label="Years of Credit History <= 12.9\nmse = 269.33\nsamples = 10\nvalue = 708.46", fillcolor="#e58139be"] ;
885 -> 886 ;
887 [label="mse = 90.75\nsamples = 3\nvalue = 689.5", fillcolor="#e58139a1"] ;
886 -> 887 ;
888 [label="mse = 117.88\nsamples = 7\nvalue = 716.89", fillcolor="#e58139cb"] ;
886 -> 888 ;
889 [label="mse = 3038.0\nsamples = 3\nvalue = 665.0", fillcolor="#e581397b"] ;
885 -> 889 ;
890 [label="mse = 10.89\nsamples = 2\nvalue = 657.33", fillcolor="#e581396f"] ;
884 -> 890 ;
891 [label="Current Credit Balance <= 545442.5\nmse = 811.75\nsamples = 2080\nvalue = 705.53", fillcolor="#e58139b9"] ;
1 -> 891 ;
892 [label="Home Ownership_Home Mortgage <= 0.5\nmse = 659.87\nsamples = 1015\nvalue = 710.98", fillcolor="#e58139c2"] ;
891 -> 892 ;
893 [label="Purpose_other <= 0.5\nmse = 796.39\nsamples = 400\nvalue = 704.93", fillcolor="#e58139b8"] ;
892 -> 893 ;
894 [label="Maximum Open Credit <= 1163382.0\nmse = 695.69\nsamples = 386\nvalue = 706.6", fillcolor="#e58139bb"] ;
893 -> 894 ;
895 [label="Maximum Open Credit <= 1157420.0\nmse = 703.27\nsamples = 270\nvalue = 703.05", fillcolor="#e58139b5"] ;
894 -> 895 ;
896 [label="Number of Open Accounts <= 25.5\nmse = 657.12\nsamples = 268\nvalue = 703.89", fillcolor="#e58139b7"] ;
895 -> 896 ;
897 [label="Years of Credit History <= 16.85\nmse = 604.81\nsamples = 260\nvalue = 704.83", fillcolor="#e58139b8"] ;
896 -> 897 ;
898 [label="Annual Income <= 1695360.5\nmse = 538.04\nsamples = 122\nvalue = 699.74", fillcolor="#e58139b0"] ;
897 -> 898 ;
899 [label="Purpose_Debt Consolidation <= 0.5\nmse = 453.4\nsamples = 96\nvalue = 703.54", fillcolor="#e58139b6"] ;
898 -> 899 ;
900 [label="mse = 649.16\nsamples = 9\nvalue = 679.71", fillcolor="#e5813991"] ;
899 -> 900 ;
901 [label="Maximum Open Credit <= 848078.0\nmse = 377.06\nsamples = 87\nvalue = 705.76", fillcolor="#e58139ba"] ;
899 -> 901 ;
902 [label="Annual Income <= 1356849.25\nmse = 362.42\nsamples = 19\nvalue = 694.63", fillcolor="#e58139a8"] ;
901 -> 902 ;
903 [label="Number of Open Accounts <= 11.0\nmse = 292.13\nsamples = 13\nvalue = 688.04", fillcolor="#e581399e"] ;
902 -> 903 ;
904 [label="mse = 151.96\nsamples = 4\nvalue = 706.43", fillcolor="#e58139bb"] ;
903 -> 904 ;
905 [label="mse = 140.88\nsamples = 9\nvalue = 680.0", fillcolor="#e5813992"] ;
903 -> 905 ;
906 [label="mse = 194.35\nsamples = 6\nvalue = 709.79", fillcolor="#e58139c0"] ;
902 -> 906 ;
907 [label="Current Credit Balance <= 353647.0\nmse = 331.05\nsamples = 68\nvalue = 709.23", fillcolor="#e58139bf"] ;
901 -> 907 ;
908 [label="Years in current job_2 years <= 0.5\nmse = 265.97\nsamples = 34\nvalue = 715.52", fillcolor="#e58139c8"] ;
907 -> 908 ;
909 [label="Maximum Open Credit <= 855228.0\nmse = 238.44\nsamples = 33\nvalue = 716.72", fillcolor="#e58139ca"] ;
